0
    -0.03509400000001444
    -0.04623600000002558
    0.009704999999999322
    -0.003189000000000099
    -0.0038940000000001924
    0.010286999999998894
    0.02396000000000331
    0.007078000000000614
    -0.004436000000000264
    -0.0020629999999999494
    0.044477000000023824
    0.05664100000003599
    0.06214300000004149
    0.05214400000003149
    0.05046500000002981
    0.05300400000003235
    0.05363000000003298
    0.017737999999997086
    0.01960299999999895
    -0.0031340000000000924
    -0.02392300000000327
    -0.0016369999999999608
    0.027427000000006776
    0.017157999999996506
    -0.0047830000000003104
    0.018346999999997695
    0.009471999999999493
    0.028203000000007552
    0.004790000000000312
    0.012485999999997279
    0.05168200000003103
    0.017827999999997176
    0.04650000000002585
    0.045637000000024984
    0.03568400000001503
    0.030411000000009757
    0.027834000000007183
    0.01458299999999574
    0.004894000000000325
    0.01902299999999837
    -0.00880899999999998
    0.028723000000008072
    -0.009445999999999512
    -0.007229000000000635
    -0.03371400000001306
    -0.020434999999999783
    -0.03608400000001543
    -0.02554500000000489
    -0.023555000000002903
    -0.06887000000004821
    -0.04316000000002251
    -0.0612500000000406
    -0.029646000000008995
    -0.01681199999999616
    -0.01452599999999578
    -0.003084000000000085
    -0.014242999999995988
    -0.010595999999998667
    0.03469300000001404
    -0.012819999999997035
    -0.021154000000000502
    -0.015653999999995002
    -0.01196599999999766
    9.100000000000079E-5
    0.014238999999995991
    0.01898099999999833
    -0.03446300000001381
    -0.03843400000001778
    -0.047778000000027125
    -0.06396700000004331
    -0.05786300000003721
    -0.05426100000003361
    -0.0431550000000225
    -0.0313530000000107
    0.0010520000000000108
    0.008846999999999952
    -3.650000000000024E-4
    0.006721000000000567
    0.003814000000000182
    -0.010883999999998456
    -0.01964099999999899
    -0.015173999999995306
    -3.8800000000000195E-4
    0.015347999999995176
    -0.01460699999999572
    -0.025336000000004685
    -0.02956100000000891
    -0.020547999999999896
    -0.0488500000000282
    -0.05416200000003351
    -0.04693600000002628
    -0.050429000000029776
    -0.04067400000002002
    -0.04399300000002334
    -0.011362999999998104
    -0.0026730000000000304
    -0.00402700000000021
    9.540000000000166E-4
    -0.018857999999998206
    -0.007406000000000658
    0.006967000000000601
    -0.042728000000022075
    0.016667999999996016
    -0.015726999999995075
    -0.02171100000000106
    -0.0172529999999966
    -0.024016000000003365
    -0.02136200000000071
    -0.04822500000002757
    -0.05309500000003244
    -0.05078400000003013
    -0.04203500000002138
    -0.03958500000001893
    -0.043348000000022695
    -0.030493000000009842
    -0.0042790000000002435
    -0.005888000000000457
    -0.008688000000000069
    0.013126999999996808
    -0.021867000000001215
    0.009647999999999365
    -0.002700000000000033
    -0.007227000000000635
    -0.02364100000000299
    -0.027054000000006403
    -0.01680299999999615
    -0.026546000000005895
    -0.023174000000002522
    -0.050397000000029744
    -0.053937000000033285
    -0.05100400000003035
    -0.048407000000027754
    -0.029514000000008863
    -0.044567000000023914
    -0.03801100000001736
    -0.023875000000003224
    -0.0022389999999999728
    0.00583300000000045
    -0.008736000000000034
    0.018153999999997502
    0.008527000000000189
    0.008440000000000251
    -0.024928000000004277
    -0.03522400000001457
    -0.020358999999999707
    -0.019169999999998518
    -0.009452999999999507
    -0.018605999999997954
    -0.05723100000003658
    -0.032248000000011594
    -0.053367000000032715
    -0.05703300000003638
    -0.015223999999995267
    -0.0273510000000067
    -0.026779000000006128
    -0.01445899999999583
    -0.01768199999999703
    -0.014589999999995733
    -3.48000000000002E-4
    0.02188300000000123
    0.0033700000000001238
    0.008125000000000483
    0.013173999999996773
    -0.02184100000000119
    -0.00942199999999953
    -0.020453999999999802
    -0.01148999999999801
    -0.017297999999996646
    -0.056556000000035904
    -0.046207000000025554
    -0.06234500000004169
    -0.05566100000003501
    -0.043557000000022904
    -0.006256000000000505
    -0.00342900000000013
    -0.03343700000001278
    -0.03850400000001785
    0.008519000000000193
    0.014613999999995715
    0.023874000000003223
    -0.03694400000001629
    0.018914999999998263
    0.018623999999997972
    0.005999000000000473
    0.008095000000000506
    -0.006548000000000544
    -0.00799300000000058
    -0.0172519999999966
    -0.06029100000003964
    -0.06764900000004699
    -0.06093300000004028
    -0.04486100000002421
    -0.04754500000002689
    -0.05068600000003003
    -0.010522999999998721
    0.004740000000000305
    0.0339520000000133
    0.02811100000000746
    0.013582999999996475
    -0.0019139999999999383
    -0.08813300000006748
    0.03064200000000999
    -0.01832099999999767
    0.02470200000000405
    0.02398300000000333
    -0.010680999999998605
    -0.013614999999996451
    -0.003520000000000142
    -0.02623100000000558
    -0.03578600000001513
    -0.03816400000001751
    -0.06744500000004679
    -0.051159000000030506
    -0.06129100000004064
    -0.016515999999995864
    0.008772000000000007
    0.02932100000000867
    4.0100000000000313E-4
    0.0032850000000001116
    -0.02229300000000164
    -0.05594000000003529
    -0.0045040000000002725
    0.019829999999999178
    0.016937999999996286
    0.023379000000002727
    0.031206000000010555
    -0.008920999999999898
    0.007222000000000634
    0.0047070000000003
    0.007207000000000631
    -0.01526199999999524
    -0.020036999999999385
    -0.02462100000000397
    0.008030000000000552
    -0.022834000000002182
    -0.0254500000000048
    -0.011604999999997926
    -0.019789999999999138
    -0.05354500000003289
    -0.05056200000002991

1
    -0.03623100000001558
    -0.05941500000003876
    -0.0661520000000455
    -0.05742400000003677
    -0.0604500000000398
    -0.055878000000035226
    -0.028930000000008275
    -0.028794000000008143
    -0.005621000000000422
    0.004464000000000268
    -0.02359100000000294
    -0.0042790000000002435
    -0.022654000000002002
    -0.027673000000007022
    -0.021499000000000847
    -0.019679999999999028
    -0.01802099999999737
    -0.024426000000003775
    -0.02209200000000144
    -0.024345000000003694
    -0.04907600000002842
    -0.04987000000002922
    -0.044578000000023925
    -0.029484000000008833
    0.0034800000000001384
    -0.0024149999999999953
    -0.0030420000000000785
    0.021529000000000877
    0.01208999999999757
    -0.003598000000000153
    -0.019857999999999206
    -0.01590099999999525
    -0.01663199999999598
    -0.011319999999998135
    -0.005031000000000343
    -0.010382999999998824
    -0.009046999999999805
    -0.011671999999997877
    -0.006731000000000568
    -0.03567500000001502
    -0.03937100000001872
    -0.04836100000002771
    -0.03728600000001663
    -0.004365000000000256
    0.004150000000000227
    0.01290699999999697
    0.039599000000018945
    0.052986000000032334
    -0.007640000000000689
    -0.009823999999999236
    0.021419000000000767
    -0.008409000000000274
    -0.0017549999999999517
    -0.013583999999996472
    -0.0060420000000004775
    -0.010336999999998858
    -0.01870199999999805
    -0.015135999999995332
    -0.02449000000000384
    -0.028104000000007453
    -0.04268400000002203
    -0.0425560000000219
    6.960000000000113E-4
    0.014937999999995477
    0.017608999999996957
    0.024889000000004238
    0.050318000000029665
    0.020386999999999735
    0.00792500000000063
    -0.012285999999997426
    -0.0014689999999999758
    -0.018707999999998056
    -0.01188599999999772
    -0.016236999999995585
    -0.01756099999999691
    -0.0019079999999999388
    -0.00417600000000023
    -0.0052720000000003745
    -0.012951999999996936
    -0.021004000000000352
    -0.05453500000003388
    -0.05698900000003634
    -0.01305799999999686
    0.008410000000000273
    0.016236999999995585
    0.03836600000001771
    0.01794199999999729
    0.026486000000005835
    -0.01563299999999498
    0.03178600000001113
    -0.017864999999997213
    -0.031133000000010482
    -0.03407200000001342
    -0.01365499999999642
    -0.007236000000000635
    0.00515400000000036
    0.014477999999995815
    -0.004410000000000261
    -0.023515000000002863
    -0.02506300000000441
    -0.05608300000003543
    -0.021687000000001035
    -0.007407000000000658
    0.02026099999999961
    -0.00410400000000022
    0.01851199999999786
    0.027133000000006482
    0.01913299999999848
    0.007918000000000635
    0.020046999999999395
    -0.021394000000000742
    -0.028224000000007573
    -0.013907999999996234
    -0.010296999999998887
    -0.003129000000000091
    0.008443000000000249
    -7.700000000000121E-4
    -0.01070199999999859
    -0.009667999999999349
    -0.016654999999996003
    -0.05047600000002982
    -0.019923999999999272
    -0.0019709999999999363
    1.399999999999993E-5
    0.029065000000008414
    0.019949999999999298
    0.04657100000002592
    0.03147500000001082
    0.0024460000000000003
    0.0037500000000001733
    -0.018479999999997828
    -0.014622999999995709
    -0.00982899999999923
    -0.022969000000002317
    -0.023097000000002445
    -0.01132699999999813
    -0.009381999999999559
    0.01503099999999541
    0.014441999999995842
    2.8400000000000045E-4
    -0.033740000000013086
    -0.018625999999997974
    0.005990000000000471
    0.025134000000004483
    0.0031180000000000886
    0.04688300000002623
    0.022047000000001395
    0.02514300000000449
    6.140000000000083E-4
    -0.0011610000000000017
    -0.021406000000000754
    -0.02839100000000774
    0.003393000000000126
    -0.01445699999999583
    0.004751000000000306
    0.012250999999997451
    0.02888100000000823
    0.020656000000000004
    0.012245999999997455
    -0.003973000000000203
    -0.053476000000032824
    -0.004211000000000234
    0.009209999999999685
    0.03714600000001649
    0.03437200000001372
    0.03859300000001794
    0.05370100000003305
    0.0269500000000063
    0.027587000000006936
    0.003106000000000088
    -0.025914000000005263
    -0.018359999999997708
    0.003227000000000104
    0.013465999999996559
    0.01102699999999835
    0.01426699999999597
    0.014088999999996101
    0.01011699999999902
    0.024207000000003556
    0.007129000000000621
    -0.034000000000013346
    -0.015185999999995295
    0.040147000000019493
    0.04431300000002366
    0.04530500000002465
    0.011518999999997991
    0.024825000000004174
    0.008746000000000026
    -4.6700000000000474E-4
    -0.019006999999998355
    -0.010371999999998832
    0.01511099999999535
    0.013332999999996657
    0.024675000000004024
    0.023874000000003223
    0.008505000000000203
    0.0047100000000003
    -0.0019199999999999378
    -0.0027720000000000435
    0.0027940000000000456
    -0.007453000000000665
    0.024147000000003496
    0.019876999999999225
    0.006155000000000492
    0.009310999999999611
    0.04267600000002202
    -0.012135999999997536
    0.009029999999999818
    0.0044370000000002645
    -0.035819000000015165
    -0.026776000000006125
    0.00830500000000035
    0.015540999999995034
    0.01819299999999754
    0.01902299999999837
    0.025097000000004446
    0.013552999999996495
    -0.0031680000000000952
    0.00312300000000009
    0.01127299999999817
    -0.01673299999999608
    -0.01907099999999842
    -0.00591200000000046
    0.012038999999997607
    0.015988999999995337
    0.0017839999999999493
    0.011116999999998285
    0.004244000000000239
    0.0018999999999999395
    -0.006559000000000545
    -0.015694999999995043
    -0.02391100000000326
    -0.005876000000000455
    -0.007670000000000693
    0.007612000000000686
    -0.02443200000000378
    0.00206199999999995
    -0.018736999999998085
    -0.015593999999994996
    -0.03593600000001528

2
    -0.05490500000003425
    -0.02573100000000508
    -0.010925999999998425
    0.038539000000017885
    0.011441999999998046
    -0.011505999999997999
    -0.01557599999999501
    -0.05910500000003845
    -0.08367600000006302
    -0.11809100000009744
    -0.07521900000005456
    -0.03221400000001156
    -0.029536000000008885
    -0.007289000000000642
    -0.006813000000000579
    0.030526000000009875
    0.03411100000001346
    0.055988000000035336
    0.04961400000002896
    0.01958699999999893
    -0.011279999999998165
    0.002408999999999996
    -0.006170000000000495
    0.030523000000009872
    -0.04317000000002252
    -0.05732500000003667
    -0.07597900000005532
    -0.061568000000040916
    -0.06517800000004452
    -0.07050300000004985
    -0.009332999999999597
    -0.009488999999999482
    -0.010879999999998459
    -0.007160000000000626
    -0.008490000000000214
    0.010017999999999092
    0.07274900000005209
    0.016407999999995756
    0.020369999999999718
    0.0042120000000002355
    0.01874199999999809
    -0.004662000000000295
    0.049409000000028756
    -0.005353000000000386
    0.015175999999995303
    -0.020063999999999412
    -0.028099000000007448
    -0.015487999999995075
    -0.013415999999996597
    -0.020056999999999405
    0.015016999999995421
    -7.110000000000098E-4
    0.035238000000014584
    0.026685000000006034
    -0.021474000000000822
    -0.01872299999999807
    0.045549000000024896
    0.04088100000002023
    0.01244299999999731
    0.057408000000036756
    0.05881100000003816
    0.022698000000002046
    -0.04134000000002069
    0.018093999999997442
    -0.008174000000000447
    -0.024077000000003426
    -0.02530300000000465
    -0.023827000000003176
    -0.01296299999999693
    -0.030566000000009915
    0.004100000000000221
    0.007508000000000671
    0.010379999999998826
    -0.005742000000000437
    -0.03562100000001497
    -0.013022999999996884
    0.024315000000003664
    0.009473999999999493
    0.02691200000000626
    0.05790200000003725
    0.059788000000039136
    0.01776199999999711
    -0.014413999999995862
    -0.006297000000000511
    -0.0045120000000002745
    -0.019206999999998555
    -0.02664200000000599
    -0.04612500000002547
    -0.04122000000002057
    -0.0715640000000509
    -0.03994500000001929
    -0.03406700000001341
    0.0260520000000054
    -2.66999999999999E-4
    0.0190519999999984
    0.008421000000000265
    -5.020000000000048E-4
    0.013638999999996432
    0.08949300000006884
    0.004917000000000328
    0.053238000000032586
    0.03968500000001903
    -0.027004000000006353
    -0.0022529999999999746
    -0.009727999999999305
    -0.016297999999995646
    -0.04761200000002696
    -0.038578000000017924
    -0.06489000000004423
    -0.05253300000003188
    -0.02973600000000908
    -0.01607299999999542
    0.020916000000000264
    0.026719000000006068
    0.011180999999998237
    -0.004424000000000263
    0.04065100000002
    0.014752999999995615
    0.08124100000006058
    0.010815999999998506
    6.450000000000099E-4
    0.07139200000005073
    0.028076000000007425
    0.013387999999996616
    0.002609000000000022
    0.006918000000000594
    -0.06671000000004605
    -0.06534600000004469
    -0.04573400000002508
    -0.04142200000002077
    -0.029335000000008684
    -0.0525540000000319
    -0.025186000000004535
    0.0014499999999999773
    0.01492099999999549
    -0.002233999999999973
    -0.02068100000000003
    0.05523200000003458
    0.07419800000005354
    0.0040450000000002125
    -0.005410000000000393
    0.007631000000000688
    0.037149000000016495
    0.009263999999999646
    -0.002647000000000028
    -0.004349000000000253
    -0.0030260000000000772
    -0.04802000000002737
    -0.019025999999998374
    -0.013296999999996683
    -0.02407000000000342
    -0.07283800000005218
    -0.05744400000003679
    0.0023809999999999916
    0.005072000000000349
    -0.007126000000000622
    -0.018768999999998117
    0.039788000000019134
    0.0012419999999999948
    -0.031409000000010755
    -0.022189000000001537
    0.018529999999997878
    0.009087999999999775
    0.06250600000004185
    0.06370400000004305
    -0.026319000000005668
    -0.019083999999998432
    -0.007448000000000664
    0.04010600000001945
    -0.002177999999999964
    -0.03952400000001887
    1.2599999999999967E-4
    -0.025436000000004785
    -0.01494699999999547
    0.006570000000000547
    -0.00417700000000023
    0.011682999999997869
    -0.043249000000022596
    0.0033350000000001183
    0.014559999999995755
    -0.0684590000000478
    -0.113651000000093
    0.005854000000000452
    -0.07182900000005117
    -0.027492000000006837
    -0.02052199999999987
    4.370000000000033E-4
    0.0079650000000006
    -0.014645999999995692
    0.022439000000001787
    0.007250000000000637
    -0.028453000000007802
    0.033679000000013025
    0.012624999999997177
    0.010571999999998685
    -0.03279100000001214
    -0.014140999999996063
    -0.032990000000012336
    0.027964000000007313
    0.025476000000004825
    -0.09502800000007437
    -0.06259000000004193
    -0.026276000000005625
    -0.045719000000025066
    0.001513999999999971
    -0.058388000000037736
    -0.010644999999998631
    0.002767000000000043
    0.014367999999995898
    0.045497000000024844
    0.024386000000003735
    0.018643999999997992
    -0.030276000000009625
    -0.06049400000003984
    -0.049068000000028415
    -0.04700400000002635
    -0.007671000000000693
    -0.01072999999999857
    -0.05992500000003927
    0.024498000000003847
    -0.1498510000001292
    -0.06349500000004284
    -0.003501000000000141
    -0.0030430000000000804
    -0.012106999999997557
    -0.016679999999996028
    0.014698999999995655
    0.016759999999996108
    0.032200000000011546
    0.04450200000002385
    -0.009480999999999486
    -0.012545999999997235
    -0.05391300000003326
    -0.1197600000000991
    -0.09787900000007722
    -0.08183700000006118
    -0.06503500000004438
    -0.07440300000005375
    -0.019195999999998544
    0.03190200000001125

3
    -0.048419000000027766
    0.024827000000004176
    -0.020317999999999666
    -0.06876900000004811
    -0.0752620000000546
    -0.06702700000004637
    -0.07201500000005136
    -0.07178400000005113
    -0.10077900000008012
    -0.09574800000007509
    -0.041327000000020674
    -0.042667000000022014
    -0.04103600000002038
    -0.015144999999995325
    -0.02454100000000389
    -0.038869000000018215
    -0.04474400000002409
    -0.02048199999999983
    -0.027416000000006765
    0.059968000000039316
    -0.05048600000002983
    0.031037000000010386
    0.013699999999996389
    -0.06003000000003938
    -0.07200900000005135
    -0.07700600000005635
    -0.07237800000005172
    -0.06771500000004706
    -0.08468500000006403
    -0.11052000000008987
    -0.06743100000004677
    -0.059448000000038796
    -0.04858600000002793
    -0.01912099999999847
    -0.04752300000002687
    -0.02566000000000501
    -0.03720200000001655
    -0.05068100000003003
    -0.06743400000004678
    -0.01716199999999651
    -0.028168000000007517
    0.03794100000001729
    -0.017074999999996423
    -0.0029020000000000616
    -0.01960199999999895
    -0.0399550000000193
    -0.0454560000000248
    -0.05242100000003177
    -0.04871600000002806
    -0.08149600000006084
    -0.04292600000002227
    -2.5799999999999966E-4
    -0.013864999999996266
    -0.01928199999999863
    -0.01991199999999926
    -0.014938999999995478
    -0.04503300000002438
    -0.06327500000004262
    -0.05444000000003379
    -0.0050470000000003455
    -0.05200300000003135
    -0.020545999999999894
    -0.01942199999999877
    -0.032169000000011515
    -0.02589100000000524
    -0.06072300000004007
    -0.05687900000003623
    -0.0762530000000556
    -0.06931800000004866
    -0.05848900000003784
    0.006724000000000568
    0.014209999999996012
    0.0299500000000093
    0.019237999999998586
    -0.03253400000001188
    -0.008078000000000517
    -0.030386000000009735
    -0.031198000000010547
    -0.028448000000007797
    0.030337000000009686
    0.00832000000000034
    -0.0038960000000001936
    -0.009384999999999557
    -0.027488000000006837
    -0.03180500000001115
    -0.0395570000000189
    -0.05879000000003814
    -0.05767500000003702
    -0.05685900000003621
    0.0029320000000000656
    0.07258800000005193
    0.06684400000004619
    0.01948199999999883
    0.006037000000000478
    -0.03844700000001779
    -0.014143999999996062
    -0.022939000000002287
    -0.035268000000014614
    -0.051229000000030576
    0.029673000000009022
    0.005356000000000387
    -0.02204200000000139
    -0.013539999999996504
    -0.021615000000000963
    -0.024139000000003488
    -0.03662700000001597
    -0.028434000000007783
    -0.049587000000028934
    -0.04177500000002112
    5.560000000000079E-4
    0.07681200000005615
    0.04364100000002299
    0.009363999999999574
    -0.01801299999999736
    -0.03840100000001775
    -0.0098719999999992
    -0.023718000000003066
    -0.03884500000001819
    -0.05001400000002936
    0.03902600000001837
    5.960000000000087E-4
    -0.09679600000007614
    -0.019018999999998367
    -0.006819000000000581
    -0.007678000000000695
    -0.013050999999996864
    -0.026187000000005536
    -0.025296000000004645
    -0.03540500000001475
    0.021027000000000375
    9.64000000000016E-4
    0.06471800000004406
    0.04148200000002083
    -5.830000000000076E-4
    -0.0437550000000231
    -0.012808999999997043
    -0.023859000000003208
    -0.02024299999999959
    -0.01967199999999902
    0.02891100000000826
    0.009394999999999551
    -0.04352400000002287
    0.010211999999998951
    -0.02481000000000416
    -0.01222599999999747
    -0.013782999999996326
    -0.009268999999999642
    -0.03784300000001719
    -0.00417600000000023
    0.05632500000003567
    0.0015539999999999677
    0.04672600000002607
    0.07326900000005261
    0.004814000000000315
    -0.021655000000001003
    -0.04337200000002272
    -0.06610300000004544
    -0.03128300000001063
    -0.03620700000001555
    0.0021069999999999553
    -0.021207000000000555
    -0.016364999999995713
    0.02150200000000085
    -0.018319999999997668
    -0.010785999999998528
    -0.009513999999999462
    -0.021144000000000492
    0.014141999999996062
    -0.0015089999999999724
    0.004538000000000277
    -0.05583900000003519
    0.06341100000004275
    0.01924299999999859
    0.04191400000002126
    -0.009466999999999497
    -0.03922600000001857
    -0.06363500000004298
    -0.031129000000010478
    -0.03314600000001249
    0.02100200000000035
    -0.07069500000005004
    -0.01331799999999667
    -0.016646999999995995
    0.011605999999997927
    -0.013371999999996628
    -0.02977100000000912
    -2.1899999999999941E-4
    0.04000600000001935
    0.051599000000030947
    0.02452500000000387
    -0.04090600000002025
    0.041928000000021275
    0.020098999999999447
    0.03212200000001147
    0.06884300000004819
    0.015366999999995162
    -0.020164999999999513
    -0.00267000000000003
    -0.02040099999999975
    -0.011484999999998016
    -0.08970100000006904
    0.040388000000019735
    -0.03804300000001739
    -0.04059400000001994
    -2.8999999999999957E-4
    0.004101000000000221
    -0.015580999999995005
    0.0035640000000001486
    0.05348500000003283
    0.022269000000001617
    -0.008710000000000053
    0.049417000000028764
    0.03998600000001933
    0.041649000000020996
    0.007622000000000686
    -0.0394560000000188
    -0.03629400000001564
    0.015550999999995029
    0.03886100000001821
    0.02677000000000612
    -0.07883500000005818
    0.010045999999999073
    0.02577000000000512
    -0.05536300000003471
    -0.010997999999998374
    0.011467999999998028
    0.04943400000002878
    0.011711999999997847
    -0.05534300000003469
    -0.017537999999996886
    -0.027345000000006694
    -0.006951000000000597
    0.032770000000012116
    0.009868999999999203
    0.02406100000000341
    0.03409500000001344
    -0.0033360000000001184
    0.028453000000007802
    -0.01879199999999814
    0.00920299999999969

4
    -0.004751000000000307
    0.010842999999998488
    0.03879400000001814
    0.020544999999999893
    0.01091999999999843
    0.030347000000009696
    0.04203300000002138
    0.03498600000001433
    -0.00198599999999994
    -0.016387999999995736
    0.03977700000001912
    -0.027874000000007223
    0.00402800000000021
    -0.0043990000000002595
    -0.024778000000004127
    -0.0169519999999963
    -0.017267999999996616
    -0.0175529999999969
    -0.015571999999995012
    -0.016668999999996017
    -0.001381999999999983
    0.012721999999997107
    0.013940999999996212
    -0.0027960000000000467
    -0.011387999999998085
    -0.0037350000000001713
    2.599999999999997E-4
    -0.012137999999997534
    -0.00591300000000046
    -0.00478900000000031
    -0.022848000000002196
    -3.410000000000018E-4
    0.010913999999998434
    0.005598000000000419
    -0.012723999999997104
    -0.012335999999997389
    -0.01516499999999531
    -0.010928999999998423
    -0.011778999999997798
    -0.02077300000000012
    -0.02518300000000453
    -0.028817000000008166
    0.019306999999998655
    0.013036999999996876
    0.016536999999995885
    -0.013910999999996232
    -0.048649000000027996
    -0.05950400000003885
    0.0374550000000168
    0.00896099999999987
    -0.01539699999999514
    6.040000000000081E-4
    0.023957000000003306
    0.0085090000000002
    1.3199999999999982E-4
    -0.009974999999999123
    -0.01207499999999758
    -0.01571299999999506
    -0.00924399999999966
    -0.021705000000001053
    -0.08979200000006914
    -0.059827000000039175
    -0.03833700000001768
    -0.019347999999998696
    -0.01734099999999669
    -0.009319999999999605
    -0.048929000000028276
    -0.015937999999995286
    -0.008964999999999865
    0.001690999999999958
    -0.009975999999999123
    0.02842000000000777
    0.016767999999996116
    0.008950999999999876
    -0.0011959999999999987
    -0.003837000000000185
    -0.011716999999997844
    -0.011337999999998122
    -0.011769999999997805
    -0.020315999999999664
    -0.1055490000000849
    -0.05614400000003549
    -0.020358999999999707
    -0.010653999999998625
    -0.011255999999998182
    -0.034838000000014184
    -0.011565999999997955
    -0.017996999999997345
    -0.002699000000000034
    -0.04474400000002409
    0.01230699999999741
    0.029394000000008743
    0.017029999999996378
    0.008220000000000413
    -0.0012859999999999911
    -0.0024640000000000026
    -0.0022749999999999776
    -0.014725999999995633
    -0.018454999999997803
    -0.03371400000001306
    -0.10940500000008875
    -0.04167300000002102
    -0.01184399999999775
    -0.01379099999999632
    -6.7900000000001E-4
    -0.00961099999999939
    -0.02524100000000459
    -0.018243999999997592
    -0.02926000000000861
    -0.015929999999995278
    0.009667999999999349
    0.022458000000001806
    0.009124999999999748
    0.007664000000000693
    -0.006110000000000487
    -0.006979000000000602
    -0.008870999999999934
    -0.00989899999999918
    -0.017369999999996718
    -0.0320510000000114
    -0.10266900000008201
    -0.028196000000007545
    -0.012779999999997063
    0.006087000000000483
    -0.010967999999998394
    -0.017573999999996922
    -0.04766500000002701
    -0.039910000000019256
    -0.004107000000000221
    0.016339999999995688
    0.014183999999996033
    0.0231500000000025
    0.0014279999999999792
    0.0028380000000000523
    -0.00832000000000034
    -0.009424999999999528
    -0.008928999999999892
    -0.01117799999999824
    -0.009849999999999215
    -0.024744000000004093
    -0.09364800000007299
    -0.015824999999995173
    -0.0029510000000000664
    -0.012744999999997089
    -0.014953999999995467
    -0.05468200000003403
    -0.03979500000001914
    -0.018317999999997666
    3.3200000000000146E-4
    0.021398000000000746
    0.016015999999995364
    0.016025999999995374
    -0.008467000000000231
    -0.0037290000000001697
    -0.009795999999999255
    -0.012136999999997535
    -0.014248999999995984
    -0.014704999999995649
    -0.02076300000000011
    -0.029357000000008706
    -0.06686800000004621
    -0.03787200000001722
    -0.021434000000000782
    -0.044378000000023725
    -0.04950400000002885
    -0.05664500000003599
    -0.054056000000033404
    -0.009682999999999338
    -0.02776200000000711
    0.024987000000004336
    0.007872000000000668
    0.008490000000000216
    -0.010071999999999052
    -0.006166000000000493
    -0.012950999999996937
    -0.019086999999998435
    -0.015386999999995148
    -0.025275000000004624
    -0.026966000000006315
    -0.036368000000015714
    -0.05396000000003331
    -0.02943400000000878
    -0.024610000000003955
    -0.028088000000007437
    -0.00507700000000035
    -0.019856999999999205
    -0.02967100000000902
    -0.022127000000001475
    -0.0025010000000000084
    0.0372510000000166
    -0.013352999999996642
    -0.06762400000004697
    -0.027648000000006997
    -0.013701999999996385
    -0.02016199999999951
    -0.033820000000013166
    -0.03592100000001527
    -0.03330200000001265
    -0.04166100000002101
    -0.06944700000004879
    -0.07938100000005872
    -0.010698999999998592
    -0.006396000000000524
    0.01007399999999905
    0.017723999999997072
    -0.007981000000000588
    0.0443540000000237
    0.035089000000014435
    0.0747550000000541
    0.06748400000004683
    0.020116999999999465
    -0.02819000000000754
    -0.00448100000000027
    -0.01916299999999851
    -0.010722999999998574
    0.0014969999999999734
    0.010255999999998917
    0.001406999999999981
    -0.016493999999995842
    -0.04087100000002022
    -0.030527000000009873
    0.01538699999999515
    0.011099999999998299
    0.022066000000001414
    -0.01727199999999662
    0.02136300000000071
    0.03274300000001209
    0.04038300000001973
    0.02977000000000912
    0.04077400000002012
    0.01918099999999853
    0.011254999999998183
    -0.006404000000000525
    -0.0026300000000000247
    -2.219999999999994E-4
    0.010765999999998542
    -0.008145000000000468
    -0.008323000000000337
    -0.011007999999998365
    0.02479300000000414

5
    0.052878000000032226
    0.01798099999999733
    0.029864000000009213
    0.029599000000008948
    0.02596200000000531
    0.007765000000000705
    0.009763999999999278
    0.026189000000005538
    0.028093000000007442
    -0.01412099999999608
    -0.05201000000003136
    -0.05864300000003799
    -0.06844800000004779
    -0.08161400000006096
    -0.05394000000003329
    -0.05628500000003563
    -0.04920200000002855
    -0.046628000000025975
    0.005088000000000351
    0.042699000000022046
    0.04866400000002801
    -0.01235099999999738
    0.03721400000001656
    0.056877000000036225
    0.0541490000000335
    0.022556000000001904
    0.029507000000008856
    0.01189799999999771
    -0.016625999999995974
    0.022107000000001455
    -0.004507000000000274
    -0.023609000000002957
    -0.04899500000002834
    -0.046557000000025904
    -0.04011300000001946
    -0.04686000000002621
    -0.05537000000003472
    -0.06567100000004501
    -0.030359000000009708
    -0.016969999999996318
    0.05921900000003857
    -0.05536500000003471
    -0.017978999999997327
    0.00493000000000033
    0.02607300000000542
    0.034656000000014
    0.02927100000000862
    0.014224999999996001
    0.06016300000003951
    0.04953500000002888
    0.0368550000000162
    0.029356000000008705
    0.007461000000000666
    -0.0023809999999999916
    -0.040318000000019664
    -0.024825000000004174
    -0.03277300000001212
    -0.07463000000005397
    -0.03558400000001493
    -0.0020049999999999417
    0.01672199999999607
    -0.04513500000002448
    -0.02461100000000396
    -0.017338999999996687
    -0.0059810000000004694
    -0.011277999999998166
    -0.0029290000000000644
    0.011104999999998293
    0.038520000000017866
    0.02412000000000347
    -0.008533000000000183
    -0.012591999999997203
    0.023129000000002477
    -0.00289600000000006
    -0.040779000000020126
    -0.0301510000000095
    -0.025119000000004468
    -0.026953000000006302
    -0.021479000000000827
    -0.0013879999999999826
    0.011642999999997898
    -0.04790200000002725
    0.016394999999995743
    -0.003257000000000108
    0.01613199999999548
    -7.520000000000117E-4
    0.005245000000000372
    0.015148999999995322
    0.027727000000007076
    0.010871999999998464
    -0.018359999999997708
    -0.009512999999999463
    0.03200400000001135
    0.0015999999999999647
    -0.027597000000006946
    -0.01648099999999583
    -0.01295999999999693
    -0.016884999999996233
    -0.027266000000006615
    0.0020029999999999415
    7.370000000000104E-4
    -0.03413600000001348
    0.010352999999998847
    0.0011750000000000005
    2.4099999999999946E-4
    -7.070000000000106E-4
    0.008008000000000568
    0.006274000000000508
    0.017508999999996857
    -0.002388999999999992
    -0.038320000000017666
    -0.024865000000004214
    0.011626999999997912
    0.007962000000000602
    -0.012885999999996985
    -0.008785999999999997
    -0.016407999999995756
    -0.01944299999999879
    -0.0282500000000076
    0.01402299999999615
    0.04516500000002451
    -0.03447500000001382
    -0.03797200000001732
    -0.044459000000023806
    -0.03798300000001733
    -0.02392000000000327
    -0.03623100000001558
    -0.04346400000002281
    -0.01640099999999575
    -0.03073500000001008
    -0.030266000000009615
    -0.02003099999999938
    0.009328999999999598
    0.006390000000000523
    -0.012207999999997483
    -0.006658000000000559
    -0.01592299999999527
    -0.026459000000005808
    -0.0032680000000001094
    0.015573999999995012
    0.034828000000014174
    -0.004422000000000263
    -0.041729000000021076
    -0.044248000000023595
    -0.03669600000001604
    -0.04353400000002288
    -0.057666000000037014
    -0.042758000000022105
    -0.01747099999999682
    -0.019946999999999295
    -0.03168400000001103
    -0.010658999999998621
    0.0045800000000002835
    0.014206999999996016
    -0.002248999999999974
    0.0017309999999999537
    -0.015161999999995313
    -0.0033150000000001156
    0.004209000000000233
    0.008460000000000236
    0.044819000000024166
    -0.016606999999995955
    -0.030495000000009844
    -0.04289500000002224
    -0.042868000000022215
    -0.06683900000004618
    -0.050439000000029786
    -0.05543100000003478
    -0.012542999999997239
    -0.052606000000031954
    -0.018714999999998063
    -0.03691100000001626
    0.018528999999997877
    0.02038299999999973
    -0.00920299999999969
    0.01260799999999719
    0.012865999999997
    0.013182999999996767
    0.009710999999999317
    -0.04186500000002121
    0.03746400000001681
    0.003181000000000097
    -0.05718100000003653
    -0.06734800000004669
    -0.07124200000005058
    -0.04554200000002489
    -0.04882000000002817
    -0.043009000000022356
    -0.009903999999999177
    -0.026909000000006258
    -0.007165000000000626
    -0.0354540000000148
    0.028563000000007912
    -0.013548999999996498
    -0.040838000000020185
    0.02230000000000165
    0.0060110000000004726
    0.05332200000003267
    0.016887999999996236
    0.035430000000014776
    0.057958000000037306
    -0.052088000000031436
    -0.09929700000007864
    -0.06537500000004472
    -0.06369100000004303
    -0.06201300000004136
    -0.059448000000038796
    -0.052627000000031975
    -0.04240600000002175
    -0.02164100000000099
    -0.040198000000019544
    0.013373999999996626
    0.05523000000003458
    0.014305999999995943
    0.0352550000000146
    0.02362000000000297
    0.01203499999999761
    0.01225299999999745
    0.04571200000002506
    0.04381300000002316
    0.08870300000006805
    -0.09603700000007538
    -0.10198400000008133
    -0.06647000000004581
    -0.12423800000010359
    -0.12486100000010421
    -0.1331740000001125
    -0.10771500000008706
    -0.10562200000008497
    -0.1373580000001167
    -0.10513600000008448
    -0.06714700000004649
    0.028157000000007506
    0.005943000000000464
    -0.02578000000000513
    -0.002399999999999994
    -0.01086499999999847
    -0.006867000000000587
    -0.052477000000031825
    -0.03223700000001158

6
    -0.045408000000024755
    -0.0424550000000218
    -0.026347000000005696
    -0.042699000000022046
    -0.025939000000005288
    -0.008936999999999886
    -0.0061460000000004905
    7.550000000000118E-4
    -0.002088999999999953
    0.015135999999995332
    0.029354000000008703
    0.036508000000015854
    0.06071500000004006
    0.09891500000007826
    0.06708300000004642
    0.042479000000021826
    0.03414700000001349
    0.020223999999999572
    -0.011641999999997899
    -0.007936000000000623
    -0.04630100000002565
    -0.04303100000002238
    -0.017063999999996412
    0.03508300000001443
    -0.012385999999997352
    -0.032730000000012076
    -0.005364000000000387
    -0.02608300000000543
    -0.011418999999998063
    -0.012118999999997548
    0.02814200000000749
    0.012407999999997336
    0.01116399999999825
    0.035028000000014374
    0.05483900000003419
    0.07847200000005781
    0.1047550000000841
    0.03626700000001561
    -0.00220999999999997
    -0.003632000000000157
    -0.02959400000000894
    -0.00749800000000067
    -0.027959000000007308
    -0.010914999999998433
    0.0077070000000006985
    -0.0397560000000191
    0.0018319999999999452
    -0.016119999999995468
    -0.008785999999999997
    0.020296999999999645
    0.030385000000009734
    0.017377999999996726
    -0.052097000000031445
    -0.025336000000004685
    -0.019556999999998905
    0.007950000000000611
    0.013617999999996449
    0.057708000000037056
    0.007237000000000637
    0.004792000000000311
    -0.024297000000003646
    0.006627000000000555
    0.0010470000000000104
    -0.004841000000000319
    -0.015238999999995256
    -0.030233000000009582
    -0.00898499999999985
    -0.008823999999999969
    0.010421999999998795
    0.008322000000000338
    0.007022000000000607
    0.011189999999998231
    -0.02667000000000602
    -0.016554999999995903
    -0.012260999999997444
    -0.01542499999999512
    0.01193999999999768
    0.015124999999995342
    0.02606100000000541
    -0.013509999999996527
    -4.02000000000004E-4
    0.01037399999999883
    -0.016246999999995595
    0.00312800000000009
    0.012223999999997471
    -0.01361399999999645
    0.0048060000000003135
    0.004793000000000312
    0.003867000000000189
    -0.0026890000000000325
    0.004612000000000288
    0.008844999999999955
    -0.043187000000022534
    -0.01452699999999578
    -0.015647999999994996
    -0.008908999999999907
    -0.00803400000000055
    0.009957999999999136
    0.02596200000000531
    0.02273100000000208
    -0.04258600000002193
    0.04007300000001942
    -0.0012599999999999942
    -0.007245000000000637
    -0.006026000000000475
    -0.006743000000000571
    -0.00682200000000058
    -0.010399999999998811
    0.007519000000000674
    0.010380999999998827
    0.026999000000006348
    0.00883599999999996
    -0.03781200000001716
    -0.019675999999999024
    -0.01223899999999746
    -0.0033590000000001214
    -0.0037130000000001684
    -0.0037800000000001773
    -0.00909599999999977
    0.016988999999996337
    -0.03340400000001275
    5.980000000000079E-4
    -0.004712000000000301
    -0.0028680000000000563
    -0.009595999999999402
    -0.022219000000001567
    -0.013294999999996684
    -0.0074190000000006594
    0.010622999999998647
    0.0090569999999998
    0.022595000000001943
    0.014148999999996057
    -0.014442999999995841
    -0.01613199999999548
    -0.012786999999997058
    -0.004349000000000253
    -0.0024339999999999987
    -0.017524999999996873
    -0.030868000000010217
    0.023137000000002485
    -0.03557300000001492
    0.044629000000023976
    -0.021126000000000474
    -0.02378200000000313
    -0.03103100000001038
    -0.034609000000013955
    -0.019127999999998476
    -0.004085000000000217
    0.03532200000001467
    -0.005799000000000446
    -0.034500000000013846
    -0.009678999999999341
    0.007696000000000697
    -0.0183529999999977
    -0.011384999999998088
    -0.008582000000000147
    -0.006656000000000559
    -0.02008099999999943
    -0.014462999999995828
    -0.014524999999995781
    -0.02168300000000103
    0.04967500000002902
    -0.053337000000032685
    -0.05181300000003116
    -0.03333500000001268
    -0.029463000000008812
    -0.024694000000004043
    -0.010885999999998456
    0.019583999999998932
    0.03646700000001581
    -0.028585000000007934
    -0.007787000000000709
    -0.019147999999998496
    -0.011622999999997913
    -0.005579000000000416
    -0.010842999999998486
    -0.022866000000002214
    -0.02021099999999956
    -0.026944000000006293
    -0.01696099999999631
    -0.016608999999995957
    0.015525999999995046
    -0.0502560000000296
    -0.03289200000001224
    -0.03340500000001275
    -0.026508000000005857
    -0.026415000000005764
    -0.024915000000004264
    0.033788000000013134
    0.05249000000003184
    0.013421999999996591
    -0.01263399999999717
    0.001074000000000009
    -0.0054670000000004
    0.004585000000000284
    0.00364300000000016
    -0.022024000000001372
    -0.03146700000001081
    -0.020708000000000056
    -0.018289999999997638
    0.020143999999999492
    -0.04714200000002649
    -0.08579800000006514
    -0.05398900000003334
    -0.033600000000012946
    -0.03316400000001251
    -0.02724000000000659
    -0.02724100000000659
    0.007460000000000667
    0.03712100000001647
    0.0036750000000001625
    0.0484540000000278
    0.05205900000003141
    0.03499600000001434
    -0.015347999999995178
    -0.0521550000000315
    -0.04557600000002492
    -0.029734000000009083
    0.0012229999999999973
    0.019959999999999308
    -0.0071630000000006255
    -0.00821300000000042
    -0.16139600000014073
    -0.12561600000010495
    -0.09380700000007315
    -0.09536400000007471
    -0.09936600000007871
    -0.10066700000008001
    -0.08084400000006019
    -0.021395000000000743
    -0.02211000000000146
    -0.028776000000008125
    -0.010869999999998466
    -0.04993000000002928
    -0.03959500000001894
    -0.022847000000002195
    -0.03314200000001249
    0.007411000000000659
    0.010309999999998877
    0.025745000000005094

7
    0.0804580000000598
    -0.005683000000000431
    0.013816999999996303
    -0.02677200000000612
    -0.03347700000001282
    -0.04081400000002016
    -0.040538000000019885
    -0.0427560000000221
    -0.045848000000025195
    -0.04167400000002102
    -0.040817000000020164
    -0.037928000000017274
    -0.02531300000000466
    -0.02249300000000184
    -0.025258000000004607
    -0.025127000000004476
    -0.028045000000007394
    -0.030019000000009368
    -0.022619000000001967
    -0.03682200000001617
    0.004173000000000229
    0.006406000000000526
    0.00818200000000044
    -0.0252500000000046
    -0.04701200000002636
    -0.05254500000003189
    -0.033658000000013004
    -0.01918299999999853
    -0.03770600000001705
    -0.0501550000000295
    -0.04943400000002878
    -0.03308100000001243
    -0.016969999999996318
    -0.014110999999996085
    -0.0031240000000000902
    -0.011703999999997853
    -0.018176999999997525
    -0.012527999999997248
    -0.03133500000001068
    -0.03243700000001178
    0.02262100000000197
    0.016437999999995786
    0.01433899999999592
    -0.015612999999994982
    -0.03568200000001503
    -0.012083999999997574
    -0.023167000000002515
    -0.018651999999998
    -0.020634999999999983
    -0.0424500000000218
    -0.05042600000002977
    -0.04042100000001977
    -0.03281200000001216
    0.001097000000000007
    0.017804999999997153
    0.02594300000000529
    0.011767999999997806
    -0.015918999999995267
    -0.001107000000000007
    -0.048258000000027605
    0.019914999999999263
    -0.00515200000000036
    0.003213000000000103
    -0.02199200000000134
    -0.01182999999999776
    -0.01509699999999536
    -0.021418000000000766
    -0.01761199999999696
    -0.02122300000000057
    -0.04818500000002753
    -0.03531200000001466
    -0.02664000000000599
    -0.015877999999995226
    0.015063999999995385
    0.038560000000017906
    0.005353000000000385
    0.01262199999999718
    0.031669000000011015
    0.02634100000000569
    -0.02734200000000669
    -0.03180100000001115
    0.005654000000000425
    0.020318999999999667
    0.020339999999999688
    -0.009714999999999314
    -0.01988099999999923
    -0.019876999999999225
    -0.016314999999995663
    -0.011992999999997641
    -0.007734000000000701
    -0.011971999999997656
    -0.008157000000000459
    -0.03202600000001137
    -0.016554999999995903
    -0.0013739999999999846
    -0.021289000000000637
    -0.023787000000003135
    0.0014519999999999772
    0.026178000000005527
    0.0046930000000002985
    -0.027993000000007342
    0.032789000000012135
    0.05221200000003156
    -0.0060120000000004736
    -0.00719200000000063
    -0.013486999999996543
    -0.0068470000000005835
    -0.008502000000000206
    0.007743000000000704
    0.012969999999996923
    -0.004063000000000215
    -0.040308000000019654
    -0.014055999999996127
    -2.089999999999996E-4
    -0.037849000000017195
    -0.0012329999999999965
    -0.02550200000000485
    0.013294999999996684
    0.028459000000007808
    0.00948999999999948
    0.010206999999998953
    0.021187000000000535
    0.019446999999998795
    -0.016608999999995957
    -0.00970799999999932
    7.250000000000111E-4
    0.013488999999996542
    0.015795999999995144
    -0.001928999999999937
    -0.017149999999996498
    -0.013035999999996875
    -0.053807000000033155
    -0.045417000000024764
    -0.016558999999995907
    0.002790000000000046
    0.005407000000000392
    0.03612300000001547
    0.008038000000000546
    0.015502999999995062
    -0.0182519999999976
    0.03699400000001634
    0.06607800000004542
    -4.140000000000026E-4
    -0.01497799999999545
    0.015163999999995311
    -0.022236000000001584
    -0.0034490000000001334
    -0.0036100000000001556
    -0.016046999999995395
    -0.004049000000000213
    -0.019465999999998814
    -0.01839299999999774
    -0.027187000000006536
    -0.005814000000000447
    -0.011768999999997806
    -0.011360999999998107
    0.004198000000000234
    -0.018664999999998013
    -0.023188000000002536
    -0.03746300000001681
    0.04872600000002807
    0.04427300000002362
    -0.022878000000002226
    -0.04598500000002533
    -0.0364510000000158
    5.260000000000071E-4
    0.00651400000000054
    -0.013070999999996849
    -0.057718000000037066
    0.028146000000007495
    -0.0207530000000001
    -0.054647000000033995
    -0.06334600000004269
    -0.03303100000001238
    -0.02821200000000756
    -0.036199000000015545
    -0.01793099999999728
    -0.019986999999999335
    -0.022609000000001957
    -0.03760400000001695
    0.06651900000004586
    0.027655000000007004
    -0.040578000000019925
    -0.006284000000000509
    0.008833999999999962
    0.010460999999998766
    0.005255000000000373
    8.560000000000142E-4
    -0.0010580000000000095
    -0.025614000000004963
    -0.03809300000001744
    -0.0513520000000307
    -0.10447900000008382
    -0.03864200000001799
    -0.030338000000009687
    -0.012903999999996972
    -0.011369999999998099
    -0.013636999999996433
    -0.024587000000003936
    -0.04512500000002447
    0.051249000000030596
    0.038120000000017466
    -0.013293999999996685
    0.003414000000000128
    0.004123000000000222
    0.03159400000001094
    0.01873199999999808
    -0.019084999999998433
    -0.019245999999998594
    -0.012789999999997057
    -0.06727000000004661
    -0.06041200000003976
    -0.06971100000004905
    -0.03458400000001393
    -0.02528100000000463
    -0.023497000000002845
    -0.020455999999999804
    -0.02602100000000537
    -0.03398500000001333
    -0.04619000000002554
    0.11499400000009434
    0.07598700000005533
    0.017634999999996983
    0.05690900000003626
    -0.003983000000000203
    0.006419000000000528
    -0.010088999999999041
    -0.04446000000002381
    -0.03227200000001162
    -0.04226000000002161
    -0.02397000000000332
    -0.01153299999999798
    -9.500000000000156E-4
    0.002375999999999992
    -0.0039010000000001925
    -8.920000000000142E-4
    -0.002582000000000019
    0.007254000000000639
    -7.890000000000134E-4
    -0.004915000000000329

8
    0.03193400000001128
    -0.021008000000000356
    0.0410500000000204
    0.05226400000003161
    0.014353999999995908
    0.010521999999998722
    7.530000000000127E-4
    -0.09760800000007695
    -0.09613700000007548
    -0.07323100000005257
    -0.08412300000006347
    -0.0792620000000586
    -0.1035540000000829
    -0.08193200000006128
    0.03278500000001213
    0.017064999999996413
    0.051487000000030834
    0.03550500000001485
    0.0700540000000494
    -0.07293200000005227
    -0.02108100000000043
    -0.047797000000027144
    -0.03572700000001507
    0.016498999999995847
    0.015895999999995244
    0.0837610000000631
    0.09757500000007692
    -0.014313999999995936
    -0.11466200000009401
    -0.14161500000012095
    -0.038639000000017985
    -0.05439400000003374
    -0.030545000000009894
    0.04746000000002681
    0.06802100000004736
    0.10153900000008088
    0.07118000000005052
    0.07708900000005643
    0.03363100000001298
    -0.012913999999996966
    -0.0021719999999999648
    0.08130800000006065
    0.0012449999999999955
    -0.036449000000015795
    -0.028039000000007388
    0.026899000000006248
    0.06618800000004553
    0.05902500000003837
    -0.040219000000019565
    -0.09691100000007626
    -0.03681400000001616
    -0.01433499999999592
    0.025857000000005206
    0.08546600000006481
    0.05559100000003494
    0.0902550000000696
    0.033848000000013194
    0.008212000000000419
    0.02033099999999968
    -0.028719000000008068
    -0.015038999999995403
    -0.03231600000001166
    0.016943999999996292
    -0.029677000000009026
    0.007357000000000652
    0.06790100000004724
    0.09953400000007888
    0.03499600000001434
    -0.0037590000000001745
    -0.003426000000000131
    -0.08797000000006731
    -0.018653999999998002
    0.011036999999998345
    0.07313400000005248
    0.06741600000004676
    0.05294000000003229
    0.008706000000000056
    -0.009564999999999425
    -0.019434999999998783
    0.009241999999999662
    -0.07617800000005552
    5.890000000000087E-4
    -0.011254999999998183
    -0.025769000000005118
    0.017646999999996995
    0.03544100000001479
    0.07255000000005189
    0.012889999999996984
    0.04561500000002496
    -2.909999999999996E-4
    0.02863100000000798
    -0.03194700000001129
    0.006907000000000593
    0.04171500000002106
    0.0035760000000001494
    0.03038100000000973
    0.07723000000005657
    0.01694199999999629
    -0.049469000000028816
    0.021778000000001126
    -0.06987100000004921
    0.0298510000000092
    7.740000000000131E-4
    -0.014669999999995674
    -0.02344100000000279
    0.014425999999995854
    0.021418000000000766
    0.04436500000002371
    0.04209300000002144
    0.05268500000003203
    0.03396600000001331
    -0.05753300000003688
    0.007667000000000692
    -0.0063430000000005175
    -0.037759000000017105
    0.02732000000000667
    0.007307000000000645
    -0.024897000000004246
    -0.023656000000003004
    -0.033479000000012825
    -0.06344900000004279
    0.00794000000000062
    -0.07232400000005167
    -0.05341400000003276
    -0.05651400000003586
    -0.037630000000016976
    0.00765200000000069
    0.04494100000002429
    0.0408520000000202
    0.05460100000003395
    0.01931199999999866
    -0.03619600000001554
    -0.013132999999996803
    -0.023225000000002573
    -0.009349999999999583
    -0.016586999999995935
    0.008298000000000355
    -0.03687400000001622
    -0.05373100000003308
    -0.04068400000002003
    -0.017269999999996618
    0.007651000000000691
    -0.11523500000009458
    -0.04578000000002513
    -0.10511300000008446
    -0.053868000000033216
    -0.05291900000003227
    -0.012382999999997354
    0.004664000000000294
    0.06531200000004465
    0.011693999999997862
    0.09612200000007547
    0.07630100000005564
    -0.0539530000000333
    -6.830000000000091E-4
    -0.020324999999999673
    -0.023258000000002606
    -0.032248000000011594
    -0.014377999999995889
    -0.0255520000000049
    -0.08529600000006464
    -0.04892200000002827
    -0.06771900000004706
    -0.07279400000005214
    -0.04707000000002642
    -0.07320800000005255
    -0.03693200000001628
    0.009256999999999651
    -0.027614000000006963
    -0.02658200000000593
    0.04926100000002861
    0.014925999999995488
    0.05547900000003483
    0.039449000000018795
    -0.012915999999996965
    -0.03799100000001734
    -0.020651
    -0.013869999999996264
    -0.008372000000000301
    0.04550000000002485
    -0.1089540000000883
    -0.014019999999996152
    -0.0671560000000465
    -0.0674590000000468
    0.02278200000000213
    -0.011207999999998218
    -0.00478800000000031
    0.023734000000003082
    0.026519000000005868
    0.016119999999995468
    -0.031095000000010444
    0.018007999999997356
    0.05529100000003464
    0.027697000000007046
    0.020059999999999408
    -0.022108000000001456
    -0.02143200000000078
    -0.048257000000027604
    -0.05624100000003559
    -0.0475520000000269
    -0.07393300000005328
    -0.042651000000022
    -0.03914300000001849
    -0.07573600000005508
    -0.021537000000000885
    -0.06514500000004449
    -0.015203999999995284
    -0.058407000000037755
    0.003415000000000129
    0.03947500000001882
    0.01608299999999543
    0.0016029999999999653
    0.04271500000002206
    -0.023885000000003234
    -0.05222500000003157
    -0.05294000000003229
    -0.08754000000006688
    -0.022999000000002347
    0.02559000000000494
    -0.010739999999998561
    -0.12420700000010355
    0.019293999999998642
    0.03051200000000986
    0.008610000000000128
    -0.0010060000000000147
    0.01297399999999692
    -0.03181300000001116
    -0.024038000000003387
    -0.04113300000002048
    -0.011255999999998184
    -0.07971900000005906
    -0.05861300000003796
    0.006424000000000527
    0.0820520000000614
    0.054848000000034196
    0.03148400000001083
    -0.010234999999998932
    0.004299000000000246
    -0.03268300000001203
    -0.07640400000005575

9
    -0.0658620000000452
    -0.13820000000011753
    -0.065656000000045
    -0.023648000000002996
    0.04981400000002916
    0.07968300000005903
    0.054227000000033575
    0.0035300000000001433
    -0.032488000000011834
    -0.05744000000003679
    -0.0881520000000675
    -0.07229900000005164
    -0.13112500000011046
    -0.0930530000000724
    -0.07843300000005778
    -0.07794100000005728
    -0.04249400000002184
    -0.03549400000001484
    -0.05973000000003908
    -0.12531700000010465
    -0.14481100000012415
    -0.055687000000035035
    0.014766999999995603
    -0.020820000000000168
    0.040039000000019385
    0.04047400000001982
    0.03230700000001165
    0.01640199999999575
    -0.04168100000002103
    0.006742000000000571
    0.025137000000004486
    -0.010043999999999075
    -0.006060000000000481
    -0.003008000000000074
    -0.0635610000000429
    -0.06491300000004425
    -0.06729500000004664
    -0.07989500000005924
    -0.06451000000004385
    0.015508999999995058
    -0.12941500000010875
    0.05796500000003731
    0.04524500000002459
    -0.004705000000000299
    -0.061197000000040545
    -0.051057000000030404
    2.790000000000012E-4
    0.05163500000003098
    0.0390530000000184
    0.05891300000003826
    -0.005332000000000384
    5.150000000000069E-4
    0.004876000000000324
    0.029376000000008725
    -0.005248000000000372
    -0.043808000000023155
    -0.037619000000016965
    -0.08097300000006032
    -0.04484300000002419
    0.027025000000006374
    -0.008142000000000472
    0.08418900000006353
    0.08288500000006223
    0.009840999999999222
    -0.016625999999995974
    0.0015539999999999686
    -0.02633100000000568
    0.03646100000001581
    0.08687400000006622
    0.07628700000005563
    0.05033000000002968
    2.5299999999999954E-4
    0.018414999999997763
    0.040597000000019944
    -0.03307300000001242
    -0.06106200000004041
    -0.06517700000004452
    -0.06008300000003943
    -0.07468500000005403
    0.027806000000007155
    -0.021255000000000603
    0.08532600000006467
    0.059148000000038496
    0.007314000000000646
    0.004016000000000209
    -0.0434500000000228
    -0.04804300000002739
    -0.03011000000000946
    -0.02564000000000499
    0.054028000000033376
    0.0375570000000169
    -0.009147999999999731
    0.0017239999999999543
    0.028469000000007818
    -0.004665000000000294
    -0.021876000000001224
    -0.018325999999997674
    -0.04291300000002226
    -0.06199400000004134
    -0.02361000000000296
    0.006829000000000583
    0.025947000000005296
    0.005940000000000464
    0.005406000000000393
    -0.01790099999999725
    -0.03452300000001387
    -0.04938400000002873
    -0.02740100000000675
    -0.02624100000000559
    -0.011289999999998157
    0.04259100000002194
    -0.01650099999999585
    0.018666999999998015
    0.0361510000000155
    6.230000000000095E-4
    -0.01830199999999765
    -0.018043999999997392
    -0.0331520000000125
    -0.06744600000004679
    -0.04252300000002187
    0.023984000000003333
    0.021009000000000357
    0.013773999999996333
    -0.01091999999999843
    -0.03579400000001514
    -0.03717300000001652
    -0.032978000000012324
    -0.036659000000016005
    -0.014483999999995813
    -0.03653700000001588
    -8.690000000000146E-4
    -0.01724299999999659
    -0.003956000000000201
    0.06108500000004043
    0.0035730000000001507
    -0.023539000000002887
    -0.027157000000006506
    -0.032409000000011755
    -0.03410300000001345
    -0.027244000000006593
    0.022767000000002115
    0.03427400000001362
    -0.036180000000015526
    -0.038288000000017634
    -0.03433400000001368
    -0.031439000000010785
    -0.028169000000007518
    -0.055698000000035046
    -0.00806100000000053
    -0.0577530000000371
    -0.0070810000000006154
    -0.017643999999996992
    -0.002043999999999947
    0.03499100000001434
    -0.011133999999998274
    -0.042719000000022066
    -0.03667400000001602
    -0.04859100000002794
    -0.05831100000003766
    -0.006226000000000502
    0.03599500000001534
    0.011999999999997636
    0.04111300000002046
    -0.0018419999999999435
    -0.00826400000000038
    -0.056447000000035795
    -0.056456000000035804
    -0.058197000000037545
    -0.022334000000001682
    -0.10189800000008124
    -0.02576100000000511
    0.0113669999999981
    -0.03658200000001593
    -0.028824000000008173
    -0.022697000000002045
    -0.05690400000003625
    -0.046099000000025446
    -0.04866400000002801
    -0.00970799999999932
    0.014400999999995874
    -0.09538900000007473
    -0.020940000000000288
    -0.011786999999997794
    0.0031440000000000938
    0.014886999999995517
    0.013370999999996629
    -0.061506000000040854
    -0.018644999999997993
    0.03161200000001096
    -0.069662000000049
    -0.03891700000001826
    0.0060420000000004775
    -0.018827999999998176
    -0.06506600000004441
    -0.04696600000002631
    -0.049649000000028996
    -0.009676999999999344
    -0.058136000000037484
    -0.005778000000000443
    0.032950000000012296
    -0.06600700000004535
    -0.05200000000003135
    -0.018758999999998107
    -0.00925799999999965
    -0.014950999999995468
    -0.019233999999998582
    -0.027609000000006958
    -0.03381700000001316
    -0.03543100000001478
    -0.05671200000003606
    0.04409000000002344
    -0.017364999999996713
    -0.026603000000005952
    -0.06961000000004895
    -0.050368000000029715
    -0.041767000000021114
    -0.03681600000001616
    -0.010228999999998937
    0.06598000000004532
    -0.04097000000002032
    -0.15217900000013151
    -0.071652000000051
    0.033800000000013146
    0.028947000000008296
    -0.03251500000001186
    0.004909000000000326
    -0.037229000000016575
    0.019339999999998688
    0.02618300000000553
    0.04178300000002113
    0.13032200000010966
    0.04354000000002289
    -0.02017099999999952
    -0.04926300000002861
    -0.03596600000001531
    -0.0698570000000492
    -0.029619000000008968
    -0.024186000000003535
    0.013482999999996546
    -0.010942999999998414