0
    0.11080999999998972
    -0.13738999999999663
    -0.14212000000000136
    -0.011169999999999715
    -0.3832600000002425
    0.39521000000025447
    0.23771000000009695
    -0.6924499999994834
    -0.14212000000000136
    0.18124000000004048
    -0.14634000000000558
    -0.01521999999999955
    0.1155399999999879
    0.1155399999999879
    -0.12066999999998591
1
    -0.15091000000001015
    0.03568000000000025
    0.0030100000000000027
    0.058290000000007176
    0.14143000000000067
    0.011449999999999702
    -0.1418600000000011
    -0.10558999999999176
    0.0030100000000000027
    -0.061160000000008055
    -0.018249999999999426
    0.012059999999999677
    -0.11823999999998686
    -0.11823999999998686
    0.013759999999999608
2
    -0.06568000000000723
    -0.0760700000000032
    -0.08017000000000161
    -0.17348000000003272
    0.18074000000003998
    -0.07036000000000542
    -0.3162500000001755
    0.01811999999999943
    -0.08017000000000161
    0.1078199999999909
    0.18929000000004853
    -0.33074000000019
    -0.061580000000008184
    -0.061580000000008184
    0.5382000000001854
3
    -0.09326999999999654
    0.04036000000000168
    -0.09630999999999536
    -0.4663500000003256
    -0.3336600000001929
    0.14618000000000542
    0.23373000000009297
    -0.017979999999999437
    -0.09630999999999536
    -0.46479000000032406
    -0.3358600000001951
    0.23069000000008993
    0.04340000000000261
    0.04340000000000261
    -0.05667000000000668
4
    0.08366000000000025
    -0.2909300000001502
    -0.013709999999999615
    4.5999999999999947E-4
    -0.1904600000000497
    0.014729999999999568
    0.09375999999999635
    0.11706999999998731
    -0.013709999999999615
    -0.13072999999998997
    -0.12763999999998688
    -0.00361000000000001
    -0.1935600000000528
    -0.1935600000000528
    0.026369999999999096
5
    -0.018159999999999434
    0.05755000000000694
    -0.02114999999999931
    0.10867999999999056
    -0.022469999999999254
    -0.4491300000003084
    -0.002520000000000007
    0.06333000000000814
    -0.02114999999999931
    -0.8795799999986318
    -0.171760000000031
    -0.0055099999999999455
    0.060540000000007865
    0.060540000000007865
    0.14121000000000045
6
    -0.04495000000000309
    -0.04292000000000247
    -0.04779000000000396
    -0.033239999999999506
    -0.7254099999993334
    -0.8377999999988219
    -0.034409999999999864
    0.053060000000005575
    -0.04779000000000396
    0.7289899999993171
    -0.7280699999993213
    -0.037250000000000734
    -0.0400800000000016
    -0.0400800000000016
    -0.0368100000000006
7
    0.01778999999999944
    0.018979999999999393
    0.014989999999999554
    -0.2981700000001574
    0.3113700000001706
    0.025379999999999136
    -0.29948000000015873
    0.04566000000000331
    0.014989999999999554
    0.2819300000001412
    0.06415000000000783
    -0.30228000000016153
    0.021779999999999283
    0.021779999999999283
    -0.6095199999998608
8
    -0.4001600000002594
    -3.2392500000127535
    -3.268320000012944
    1.0701499999985433
    6.504639999922917
    4.563559999996402
    3.933990000017305
    -0.2851100000001443
    -3.268320000012944
    1.446240000001007
    7.5801599998822
    1.065829999998515
    -0.37109000000023035
    -0.37109000000023035
    -1.387450000000622
9
    -0.20183000000006107
    -0.06741000000000656
    -0.204770000000064
    0.33631000000019556
    -0.5440600000001587
    0.4424200000003016
    0.3353700000001946
    -0.16994000000002918
    -0.204770000000064
    -0.5772800000000076
    0.61848999999982
    0.3324300000001917
    -0.0644700000000077
    -0.0644700000000077
    -0.8324399999988463