0
    -0.005030000000000341
    0.005086000000000353
    -0.11141300000009076
    0.19081400000017015
    0.0
    2.8200000000000994E-4
    0.14108500000012045
    -0.8026840000022443
    -0.11141300000009076
    0.16838900000014773
    0.0
    -0.06744700000004679
    0.15120100000013054
    0.15120100000013054
    -0.11141300000009076
1
    -0.44615999999498096
    -0.35652699999737913
    0.07712000000005648
    -0.11306300000009241
    0.0
    0.08699400000006635
    -0.12411000000010346
    -0.11936100000009871
    0.07712000000005648
    -0.019597999999998946
    0.0
    0.08299100000006235
    -0.03447700000001382
    -0.03447700000001382
    0.07712000000005648
2
    0.01625799999999561
    0.026202000000005554
    -0.03711900000001646
    -0.2621329999999047
    0.0
    0.030744000000010097
    0.038021000000017374
    0.04341500000002276
    -0.03711900000001646
    0.2621329999999047
    0.0
    -0.5405549999947066
    0.04796500000002731
    0.04796500000002731
    -0.03711900000001646
3
    -0.005143000000000356
    0.005144000000000361
    -0.22708500000020643
    -0.8026860000022443
    0.0
    1.6000000000009615E-5
    0.19416500000017353
    0.19961700000017896
    -0.22708500000020643
    -0.5227899999941957
    0.0
    0.2798959999994295
    0.2044520000001838
    0.2044520000001838
    -0.22708500000020643
4
    0.1755270000001549
    -0.2861509999992621
    -0.1019500000000813
    0.21520500000019455
    0.0
    1.0500000000000248E-4
    0.20340900000018278
    0.2085500000001879
    -0.1019500000000813
    -0.021408000000000756
    0.0
    -0.09560100000007495
    -0.2582690000000081
    -0.2582690000000081
    -0.1019500000000813
5
    0.04157600000002093
    0.05222500000003158
    -0.011293999999998146
    0.07370600000005305
    0.0
    -0.8026920000022445
    0.061430000000040785
    0.06684600000004619
    -0.011293999999998146
    -0.8026920000022445
    0.0
    -0.004709000000000291
    0.07207900000005142
    0.07207900000005142
    -0.011293999999998146
6
    -0.04506600000002441
    -0.03513400000001448
    -0.087650000000067
    0.033652000000013
    0.0
    -0.8026840000022443
    -0.026117000000005462
    1.479999999999989E-4
    -0.087650000000067
    0.8026940000022446
    0.0
    -0.033515000000012854
    -0.016184999999995533
    -0.016184999999995533
    -0.087650000000067
7
    0.39306999999640146
    0.4096159999959587
    -0.09471500000007406
    -0.09470200000007405
    0.0
    -0.06268000000004202
    -0.21818000000019752
    -0.18123700000016058
    -0.09471500000007406
    -0.08654100000006588
    0.0
    -0.05451900000003387
    -0.20163400000018097
    -0.20163400000018097
    -0.09471500000007406
8
    -0.24219200000022154
    -0.014507999999995792
    -0.321884999998306
    0.2247670000002041
    0.0
    0.34230299999775976
    -0.22042700000019977
    0.3423029999977597
    -0.321884999998306
    0.34230799999775957
    0.0
    0.1175390000000969
    0.007257000000000638
    0.007257000000000638
    -0.321884999998306
9
    -0.18068600000016002
    0.14711300000012648
    -0.27356799999959874
    0.48704599999388704
    0.0
    0.487049999993887
    -0.15783000000013717
    1.9999999999992033E-6
    -0.27356799999959874
    -0.48705599999388677
    0.0
    -0.21622400000019557
    0.1699690000001493
    0.1699690000001493
    -0.27356799999959874