0
    -0.09054300000006989
    0.002905000000000062
    -0.00128999999999999
    -0.02870000000000805
    -0.028448000000007797
    -0.09421400000007356
    -0.0027770000000000433
    0.07517400000005452
    -0.030539000000009888
    0.02231200000000166
    0.03933600000001868
    -0.02661200000000596
    -0.011869999999997731
    -0.007986000000000586
    -0.012690999999997128
    -0.022796000000002144
    -0.0219500000000013
    0.01873099999999808
    -0.018684999999998033
    0.00943599999999952
    -0.010760999999998546
    -0.008599000000000134
    -0.04199400000002134
    0.0334520000000128
    0.010655999999998623
    -0.05734100000003669
    -0.0917560000000711
    -0.10192800000008127
    -0.1041590000000835
    0.03703100000001638
    0.017757999999997106
    -0.07968800000005903
    -0.06568400000004503
    -0.10707600000008642
    -0.12153700000010088
    -0.011527999999997983
    0.05112200000003047
    -0.045368000000024715
    -0.031820000000011166
    -0.018106999999997455
    -0.02157200000000092
    0.01572299999999507
    0.051486000000030833
    -0.021829000000001177
    -0.024687000000004036
    -0.0015919999999999654
    0.00380800000000018
    0.017155999999996504
    0.05620000000003555
    0.03153600000001088
    0.004884000000000325
    0.015115999999995348
    0.0038770000000001893
    0.01317799999999677
    0.05492900000003428
    -0.00636700000000052
    -0.01347799999999655
    0.029784000000009133
    0.013026999999996881
    -0.13192700000011126
1
    -0.06550100000004484
    -0.08407200000006342
    -0.06979900000004914
    -0.012978999999996915
    0.05963200000003898
    0.058306000000037654
    -0.03982700000001917
    -0.17797800000015732
    -0.11406300000009341
    0.020015999999999364
    0.022984000000002332
    0.03433100000001368
    0.024537000000003886
    0.004346000000000253
    0.0398530000000192
    0.10001700000007936
    -0.01106799999999832
    -0.008021000000000559
    0.05563300000003498
    0.05818200000003753
    0.025476000000004825
    0.01823099999999758
    4.110000000000034E-4
    -0.03766100000001701
    0.07691500000005626
    -0.032078000000011424
    -0.07559100000005493
    -0.08012600000005947
    -0.003932000000000197
    0.002472000000000003
    -0.023534000000002882
    0.016734999999996083
    -0.1292600000001086
    -0.07969900000005904
    -0.002737000000000038
    -0.003625000000000156
    -0.06333600000004268
    0.08869100000006803
    -0.015938999999995287
    -0.08063800000005998
    -0.037850000000017196
    -0.02324100000000259
    -0.05719200000003654
    -0.03001400000000936
    0.02827200000000762
    0.017639999999996988
    -0.06746500000004681
    -0.010760999999998546
    -0.028355000000007704
    -0.020153999999999502
    0.009985999999999115
    0.06802200000004736
    -0.049029000000028376
    -0.06439100000004373
    -0.03571500000001506
    0.03657200000001592
    0.08268500000006203
    -0.024385000000003734
    0.0027190000000000356
    0.0714530000000508
2
    0.20181300000018115
    0.012506999999997265
    0.02358500000000293
    -0.034652000000014
    -0.10803300000008738
    -0.13809600000011743
    -0.08601400000006536
    -0.05202400000003137
    0.0338510000000132
    0.2974529999989597
    -0.0969620000000763
    -0.1252650000001046
    0.046687000000026034
    -0.07801000000005735
    -0.061298000000040646
    0.025337000000004682
    -0.0569520000000363
    -0.14054000000011987
    -0.3187199999983907
    -0.0987620000000781
    -0.07937700000005872
    -0.03520300000001455
    -0.05130500000003065
    0.23822200000021757
    -0.08807100000006741
    -0.026915000000006264
    -0.206655000000186
    0.05820900000003756
    -0.017935999999997284
    -0.00456300000000028
    0.008955999999999874
    0.018896999999998245
    0.029413000000008762
    0.049948000000029295
    -0.27595599999953485
    0.02754200000000689
    1.9700000000000034E-4
    -0.18680700000016615
    0.004188000000000231
    -0.10057800000007992
    -0.1610590000001404
    -0.36726499999709183
    0.3304559999980767
    -0.013786999999996325
    -0.022779000000002127
    0.00765000000000069
    -0.061108000000040456
    -0.07600500000005535
    0.1714710000001508
    0.009445999999999512
    -0.10170400000008105
    0.056006000000035354
    -0.0024159999999999954
    -0.02138400000000073
    -0.013761999999996343
    -0.00881099999999998
    0.036279000000015625
    0.06781400000004716
    0.044609000000023956
    0.04997000000002932
3
    -0.18548300000016482
    -0.16059500000013993
    0.04928600000002863
    0.03834100000001769
    0.05294100000003229
    -0.21831900000019766
    -0.09267900000007202
    -0.29977899999889746
    -0.45068699999485984
    -0.028695000000008044
    0.1642540000001436
    0.020101999999999447
    -0.17623500000015557
    -0.25053000000021514
    -0.22180300000020114
    -0.1251750000001045
    -0.23939700000021874
    -0.19674300000017608
    -0.6168779999969013
    -0.2379530000002173
    -0.06622500000004557
    0.26636199999979154
    0.22074100000020008
    0.03596600000001531
    -0.1523580000001317
    -0.101654000000081
    -0.061703000000041044
    -0.025949000000005294
    0.07122700000005057
    0.084661000000064
    0.13551000000011484
    0.14312100000012246
    0.17264200000015198
    -0.03171400000001106
    0.05577400000003513
    0.06240700000004175
    -0.08873900000006808
    -0.2562470000000622
    -0.19547600000017482
    0.11120100000009055
    0.21421400000019356
    0.43097899999538714
    0.10313200000008248
    0.18720300000016654
    -0.257972000000016
    -0.2765789999995182
    -0.1550550000001344
    0.025839000000005184
    -0.23444000000021378
    0.19931000000017865
    -0.0932530000000726
    0.056148000000035496
    -0.15149600000013083
    -0.0034640000000001362
    -0.13259100000011192
    0.13144800000011078
    0.18683700000016618
    0.21737400000019672
    0.0677640000000471
    -0.5382559999946405
4
    0.02674200000000609
    -0.06451100000004385
    -0.11383300000009318
    -0.11812900000009748
    -0.12734600000010668
    -0.04466200000002401
    0.030429000000009778
    0.008109000000000494
    -0.04723300000002658
    -0.03818300000001753
    -0.022865000000002213
    -0.0358570000000152
    0.00141899999999998
    -0.021844000000001192
    -0.023399000000002747
    -0.034950000000014296
    0.02000199999999935
    0.0028410000000000536
    -0.003930000000000197
    -0.03080400000001015
    -0.011206999999998218
    -0.010503999999998735
    0.019428999999998777
    0.02179000000000114
    0.013633999999996435
    0.03546100000001481
    0.026247000000005596
    0.028145000000007494
    0.030593000000009942
    0.008825999999999968
    0.025155000000004504
    0.018413999999997762
    0.013051999999996863
    9.480000000000174E-4
    0.026653000000006002
    -0.013321999999996665
    0.008871999999999934
    -0.01485399999999554
    0.02452200000000387
    0.01583199999999518
    0.06424600000004359
    0.02591300000000526
    -1.929999999999995E-4
    -0.009782999999999265
    0.006069000000000482
    -0.02029199999999964
    0.04569000000002504
    0.014278999999995962
    -0.03323100000001258
    -0.041877000000021224
    -0.023259000000002607
    -0.02770100000000705
    -0.0047130000000003
    0.020123999999999472
    -0.03872400000001807
    -0.07878300000005813
    -0.09804200000007739
    -0.048149000000027496
    -0.02271000000000206
    0.010702999999998589
5
    -0.009920999999999165
    -0.024869000000004218
    0.02241200000000176
    0.008420000000000268
    0.008084000000000514
    0.030934000000010283
    -0.012872999999996996
    0.023938000000003287
    0.0075270000000006755
    -0.010432999999998787
    -0.040030000000019376
    -0.09078900000007013
    -0.00925899999999965
    0.021719000000001067
    -2.6900000000000003E-4
    -0.059138000000038486
    -0.06933300000004868
    -0.08328300000006263
    -0.019704999999999053
    0.026829000000006178
    -0.021758000000001106
    -0.04973300000002908
    -0.056146000000035494
    -0.04956100000002891
    -0.02873000000000808
    0.03031200000000966
    0.009648999999999363
    0.021998000000001346
    -0.005562000000000415
    -0.0182509999999976
    -0.04719500000002654
    0.014183999999996033
    0.005109000000000353
    -0.024186000000003535
    -0.020704000000000052
    -0.02083100000000018
    -0.06298000000004232
    -0.012159999999997518
    -0.006840000000000583
    -0.009265999999999644
    -0.011486999999998014
    -0.03113500000001048
    -0.07542400000005477
    -0.021805000000001153
    -0.04807600000002742
    0.02469000000000404
    0.006293000000000511
    0.002421999999999998
    -0.054038000000033386
    -0.0559500000000353
    -0.020386999999999735
    0.03606500000001541
    -0.02283300000000218
    0.010395999999998816
    0.053827000000033175
    0.023986000000003335
    0.015023999999995416
    0.04382500000002317
    -0.00719800000000063
    -0.050049000000029396
6
    -0.08101700000006036
    -0.04384000000002319
    -0.020199999999999548
    -0.024257000000003606
    0.011497999999998006
    -0.07658800000005593
    -0.09008400000006943
    0.03618700000001553
    -0.004418000000000261
    -0.08516900000006451
    -0.13228800000011162
    -0.0644610000000438
    -0.009355999999999578
    -0.02446100000000381
    -0.003847000000000187
    -0.043338000000022685
    -0.0850610000000644
    -0.1244510000001038
    0.03892600000001827
    -0.08424500000006359
    -0.004895000000000326
    -0.09454500000007389
    -0.15110500000013044
    -0.17362700000015296
    0.061627000000040975
    0.007677000000000695
    0.05120200000003055
    0.014652999999995689
    0.008851999999999948
    -0.11810800000009745
    0.06342900000004277
    0.04363400000002298
    0.035279000000014625
    0.07584700000005519
    0.08159600000006094
    -0.09578600000007513
    0.10628900000008563
    -0.07399300000005334
    0.015935999999995284
    -0.08380600000006315
    -0.11961200000009896
    -0.046668000000026015
    0.1180590000000974
    -0.029665000000009014
    -0.03589700000001524
    -0.0828540000000622
    -0.0618570000000412
    0.0031250000000000904
    0.11010900000008945
    0.05384100000003319
    0.015545999999995033
    0.043458000000022805
    0.022636000000001984
    -0.012326999999997397
    -0.04552100000002487
    -0.01869099999999804
    -0.018019999999997368
    -0.01189799999999771
    -0.0074420000000006625
    0.02191200000000126
7
    -0.0033540000000001216
    0.04266600000002201
    0.06720200000004654
    0.0628590000000422
    0.048088000000027435
    0.07800600000005735
    -0.08454600000006389
    -0.07702500000005637
    0.006573000000000549
    -0.03080300000001015
    -0.05998500000003933
    0.08060200000005995
    -0.12594600000010528
    -0.02670100000000605
    -0.033651000000013
    -0.03848700000001783
    0.07334400000005269
    0.05743100000003678
    -0.112650000000092
    -0.07968000000005902
    -0.08459200000006394
    0.020008999999999357
    -0.014187999999996028
    -0.013214999999996743
    -0.05157400000003092
    -0.06676800000004611
    -0.03661300000001596
    -0.011736999999997829
    -0.022477000000001825
    -0.05670900000003606
    -0.04614600000002549
    -0.04401600000002336
    -0.041927000000021274
    -0.020038999999999387
    -0.09003400000006938
    0.024214000000003563
    -0.01944299999999879
    0.019925999999999274
    -0.011143999999998266
    -0.02554000000000489
    -0.028015000000007364
    0.005201000000000367
    -0.036758000000016104
    -0.01903199999999838
    0.029639000000008988
    0.05427400000003362
    0.055757000000035105
    -0.024111000000003456
    0.0219500000000013
    0.008421000000000265
    0.01413099999999607
    -0.040238000000019584
    -0.072652000000052
    -0.07506900000005441
    -0.08980000000006914
    -0.02103100000000038
    -0.026875000000006224
    -0.10204400000008139
    -0.07540800000005475
    -0.0252540000000046
8
    0.11102500000009037
    -0.2384500000002178
    -0.010872999999998465
    -0.01690099999999625
    -0.34446599999770183
    -0.33614099999792457
    0.21242000000019176
    -0.29473799999903233
    -0.46859699999438065
    0.21922600000019857
    -0.06285000000004219
    0.21629700000019564
    -0.13133300000011067
    -0.05740400000003675
    0.09060000000006994
    0.00552500000000041
    -0.288544999999198
    -0.07082800000005017
    0.20289200000018223
    0.06340900000004275
    0.46431699999449516
    -0.11819800000009754
    0.05928400000003863
    -0.06947100000004881
    -0.2646069999998385
    0.17808000000015742
    0.3278169999981473
    -0.09622000000007556
    -0.6397739999975597
    0.10940300000008876
    -0.5887879999960935
    0.184668000000164
    0.08728700000006663
    -0.12572700000010506
    -0.27157599999965204
    -0.023718000000003063
    0.1725590000001519
    0.03636700000001571
    -0.2834809999993335
    -0.5306869999944228
    0.24939700000022874
    0.0327530000000121
    0.13150900000011084
    0.206650000000186
    -0.41582599999579256
    -0.05491100000003426
    -0.25266300000015807
    0.12961500000010895
    0.3357559999979349
    0.16373400000014307
    -0.09116700000007051
    -0.041059000000020406
    -0.1323630000001117
    0.014918999999995493
    0.30052299999887755
    0.026148000000005497
    0.04498400000002433
    0.09139500000007074
    -0.09496500000007431
    -0.27231199999963235
9
    -0.11745500000009679
    0.10547500000008482
    0.07572700000005507
    0.06857900000004792
    0.08920700000006855
    -0.1042560000000836
    0.12663900000010597
    -0.14797100000012733
    -0.10090900000008025
    -0.10076300000008011
    -0.1228480000001022
    -0.06013000000003948
    0.19008800000016943
    -0.3439399999977159
    -0.10721300000008656
    -0.08040700000005975
    -0.17928900000015863
    -0.029593000000008942
    0.2009720000001803
    -0.011200999999998223
    -0.010795999999998522
    -0.0740580000000534
    -0.11028000000008963
    -0.009096999999999772
    -0.1383690000001177
    0.2052670000001846
    -0.04587300000002523
    -0.13700300000011634
    -0.15351300000013285
    0.05765000000003699
    -0.1328560000001122
    -0.17251000000015185
    2.2600000000000026E-4
    0.12209800000010144
    0.019916999999999265
    -0.0332510000000126
    -0.22442900000020377
    -0.24073400000022008
    -0.021438000000000786
    -0.06216500000004151
    -0.14541900000012475
    -0.045117000000024464
    -0.1731530000001525
    0.012327999999997397
    -0.18660100000016594
    -0.07876900000005811
    -0.21450200000019384
    -0.0734630000000528
    -0.17321900000015256
    -0.20331200000018265
    -0.07426500000005361
    -0.12340000000010275
    -0.3546229999974301
    -0.06908000000004842
    0.14399100000012333
    0.11211700000009146
    -0.13783800000011717
    0.11540400000009475
    -0.011620999999997906
    -0.0405520000000199