0
    -0.04857100000002792
    -0.015262999999995239
    0.03303200000001238
    0.029975000000009324
    -0.0069570000000006
    0.00838700000000029
    -0.002541000000000012
    -0.01480099999999558
    0.01883099999999818
    0.035320000000014666
    0.05881400000003816
    0.05560000000003495
    0.04858400000002793
    0.04279400000002214
    0.031320000000010666
    -0.05081200000003016
    -0.013710999999996379
    0.004072000000000216
    0.013090999999996834
    0.021625000000000973
    0.01951299999999886
    0.009845999999999218
    0.022294000000001642
    0.016179999999995528
    0.015784999999995133
    0.02074300000000009
    0.014863999999995532
    0.02624000000000559
    0.02962200000000897
    0.04674500000002609
    -0.014346999999995912
    -0.004198000000000233
    -0.015936999999995285
    -0.008537000000000182
    -0.007834000000000696
    0.0029680000000000695
    -4.480000000000034E-4
    -0.02067100000000002
    -0.013022999999996886
    -0.01946199999999881
    0.008981999999999853
    -0.004367000000000255
    0.007460000000000665
    0.015209999999995278
    2.4499999999999934E-4
    -0.02352100000000287
    0.010131999999999008
    0.029859000000009208
    -0.0070290000000006085
    3.020000000000009E-4
    -0.013410999999996601
    -0.016669999999996018
    -0.02533100000000468
    -0.04530400000002465
    -0.01718199999999653
    -0.010140999999999002
    -8.85000000000014E-4
    0.005897000000000458
    -0.01102799999999835
    -0.019308999999998657
    -0.026826000000006175
    0.006902000000000592
    -0.00485500000000032
    -0.028223000000007572
    -0.0018059999999999465
    -0.030745000000010094
    -0.025119000000004468
    -0.027798000000007147
    -0.030637000000009986
    -0.02819200000000754
    -0.019884999999999233
    -0.01887199999999822
    0.005217000000000368
    -0.010244999999998925
    0.0037230000000001697
    -0.003491000000000138
    -0.00251800000000001
    -0.01456699999999575
    -0.019346999999998695
    -0.0379510000000173
    -0.0121849999999975
    -0.024315000000003664
    -0.033329000000012675
    -0.02051299999999986
    -0.030139000000009488
    -0.028487000000007836
    -0.02204000000000139
    -0.01097299999999839
    -0.012724999999997103
    -0.003256000000000107
    -0.014434999999995847
    -0.027204000000006553
    -0.030293000000009642
    -0.016034999999995383
    -0.03311500000001246
    -0.010053999999999065
    -0.016146999999995495
    -0.025604000000004953
    -0.02778200000000713
    -0.027356000000006705
    -0.02668200000000603
    -0.013713999999996377
    -0.010584999999998675
    0.002239999999999973
    -0.02052099999999987
    0.017303999999996652
    -0.012386999999997353
    0.006267000000000507
    -0.00875400000000002
    -0.010335999999998858
    -0.008535000000000181
    -0.015524999999995046
    -0.03159700000001094
    -0.022236000000001584
    -0.019756999999999105
    -0.0243510000000037
    -0.01485199999999554
    -0.007973000000000594
    5.340000000000065E-4
    0.010702999999998589
    0.02438100000000373
    -0.02130100000000065
    -1.7099999999999955E-4
    -0.0054160000000003945
    -0.012507999999997263
    -0.006603000000000552
    -0.022758000000002106
    -0.0347540000000141
    -0.019148999999998497
    -0.032338000000011684
    -0.030768000000010117
    -0.0185519999999979
    -0.011894999999997713
    -0.001430999999999979
    -0.007308000000000645
    0.027524000000006873
    -0.004268000000000241
    -0.011930999999997687
    -0.013609999999996453
    -0.01383199999999629
    -0.018557999999997906
    -0.02433000000000368
    -0.03679100000001614
    -0.02570100000000505
    -0.03296200000001231
    -0.031669000000011015
    -0.022914000000002262
    -0.004126000000000223
    0.007693000000000697
    -0.008677000000000077
    0.01951299999999886
    -0.009431999999999522
    -0.01415799999999605
    -0.017306999999996655
    -0.013510999999996526
    -0.017185999999996534
    -0.017369999999996718
    -0.0355520000000149
    -0.03438500000001373
    -0.028304000000007653
    -0.028596000000007945
    -0.016515999999995864
    -0.013051999999996865
    -0.008784999999999998
    0.016546999999995895
    -0.01113599999999827
    0.008650000000000097
    0.0010290000000000128
    -0.01267599999999714
    -0.021044000000000392
    -0.014660999999995681
    -0.02629000000000564
    -0.0372520000000166
    -0.04327600000002262
    -0.03323300000001258
    -0.02822000000000757
    -0.016537999999995886
    -0.015151999999995322
    0.008798999999999987
    0.017406999999996755
    -0.02421000000000356
    0.012346999999997381
    -0.011901999999997708
    -0.014024999999996148
    -0.008366000000000305
    -0.023819000000003167
    -0.028136000000007485
    -0.043018000000022365
    -0.042168000000021515
    -0.03453100000001388
    -0.018076999999997425
    -0.008081000000000515
    0.003897000000000193
    0.019989999999999338
    -0.006719000000000567
    -0.02214100000000149
    0.0422550000000216
    0.012192999999997494
    0.0033300000000001176
    -0.015174999999995303
    -0.020715000000000063
    -0.025908000000005257
    -0.030493000000009842
    -0.05442500000003377
    -0.04932100000002867
    -0.0029730000000000693
    0.007632000000000689
    0.008281000000000368
    -0.0033670000000001234
    0.007942000000000617
    -0.01762099999999697
    0.02331000000000266
    0.04314200000002249
    0.04126000000002061
    0.007140000000000623
    -0.014534999999995775
    -0.019213999999998562
    -0.019287999999998636
    -0.05373400000003308
    -0.05240000000003175
    -0.03271200000001206
    -0.013438999999996579
    0.007581000000000681
    -0.00726600000000064
    -0.025714000000005063

1
    -0.03567400000001502
    -0.048627000000027974
    -0.01753199999999688
    -0.026288000000005637
    0.00911099999999976
    0.003884000000000192
    0.016556999999995905
    0.06214500000004149
    -0.005361000000000387
    0.020958000000000306
    -0.006323000000000515
    -0.021547000000000895
    -0.008828999999999965
    -0.014698999999995653
    -0.030248000000009597
    -0.044651000000024
    -0.059287000000038635
    -0.05866400000003801
    -0.05723100000003658
    -0.02437300000000372
    -0.04314200000002249
    -0.015581999999995004
    0.02828100000000763
    -0.00838600000000029
    0.005784000000000443
    0.008379000000000296
    -0.010560999999998693
    -0.016419999999995768
    -0.03154300000001089
    -0.05594000000003529
    -0.011480999999998017
    -0.04403500000002338
    -0.04328500000002263
    -0.003830000000000183
    -0.008882999999999926
    -0.01949299999999884
    0.01604199999999539
    0.0285500000000079
    -0.011359999999998106
    0.01713099999999648
    0.02031099999999966
    -0.013522999999996517
    -0.007248000000000638
    -0.04527100000002462
    -0.015793999999995142
    -0.03879700000001814
    -0.05712300000003647
    -0.031657000000011
    -0.0065780000000005496
    -0.018089999999997438
    0.0660570000000454
    0.017306999999996655
    0.0032890000000001113
    0.004394000000000259
    -0.011159999999998253
    0.008708000000000054
    -0.0098729999999992
    -0.007280000000000641
    -0.002924000000000063
    -0.04131500000002066
    -0.02727100000000662
    -0.02008099999999943
    0.002112999999999956
    0.029399000000008745
    -0.009613999999999389
    0.04718400000002653
    -0.01800099999999735
    -0.011373999999998097
    -0.020414999999999763
    -0.014491999999995805
    -0.03343500000001278
    -0.015407999999995134
    -0.013944999999996209
    7.570000000000119E-4
    -0.012960999999996932
    -0.03333700000001268
    -0.028358000000007703
    0.00996599999999913
    0.046653000000026
    0.0252530000000046
    -0.010281999999998898
    -0.033558000000012904
    0.04539000000002474
    -0.023349000000002694
    -0.040317000000019663
    -0.005808000000000446
    0.022335000000001683
    0.040629000000019976
    0.0038900000000001928
    0.00530400000000038
    -0.04596200000002531
    -0.031718000000011064
    -0.010733999999998566
    0.01968099999999903
    0.019217999999998566
    -0.009979999999999122
    0.0054620000000004
    -0.026626000000005975
    -0.06148100000004083
    -0.07260100000005194
    -0.029446000000008795
    -0.016219999999995568
    -0.0038030000000001804
    0.004864000000000321
    -0.030229000000009578
    -0.08133000000006067
    -0.054306000000033654
    0.015723999999995072
    -0.008459000000000237
    0.016404999999995753
    0.04132400000002067
    -0.005609000000000421
    0.012519999999997256
    -0.021167000000000515
    -0.031236000000010585
    -0.023706000000003054
    0.004469000000000268
    0.013172999999996774
    0.007078000000000614
    -0.0043770000000002566
    -0.047898000000027245
    0.008140000000000473
    0.004943000000000332
    0.021255000000000603
    0.05397000000003332
    0.035908000000015254
    -0.023536000000002884
    -0.018155999999997504
    -0.060768000000040116
    -0.006346000000000518
    0.0025600000000000145
    -0.019459999999998808
    -0.02266200000000201
    0.012651999999997157
    -0.02479200000000414
    -0.022719000000002067
    -0.015929999999995278
    0.04118100000002053
    0.030126000000009475
    0.050757000000030104
    0.015796999999995145
    0.04413500000002348
    0.004836000000000318
    -0.06579700000004514
    0.008125000000000483
    0.004219000000000235
    0.001761999999999951
    0.01020999999999895
    0.034978000000014324
    0.004839000000000318
    -0.03337100000001272
    -3.800000000000027E-4
    0.014574999999995744
    0.03217300000001152
    0.024346000000003695
    0.03817700000001752
    0.001238999999999995
    0.002641000000000027
    -0.02089100000000024
    0.019948999999999297
    0.008947999999999878
    0.046117000000025464
    0.011134999999998273
    -0.0034960000000001396
    0.011404999999998073
    -0.040127000000019473
    -0.016848999999996197
    0.03209200000001144
    0.0015609999999999689
    0.04489200000002424
    0.03300600000001235
    0.017136999999996485
    -0.026026000000005375
    -0.002172999999999964
    0.01673099999999608
    0.01363099999999644
    0.01404999999999613
    0.005711000000000433
    -0.012527999999997248
    -0.026644000000005993
    -0.026893000000006242
    0.05652500000003587
    0.0022399999999999738
    -0.018276999999997625
    0.05497000000003432
    0.01864299999999799
    -0.007533000000000675
    0.002650000000000028
    -0.013570999999996482
    0.009730999999999303
    0.003537000000000144
    0.005647000000000424
    0.007839000000000693
    0.004147000000000225
    -0.01410499999999609
    -0.012489999999997278
    -0.052888000000032236
    0.04812200000002747
    -0.02249200000000184
    0.007971000000000596
    0.005924000000000462
    0.004756000000000307
    -0.00904099999999981
    -0.0425550000000219
    0.018426999999997775
    0.017413999999996762
    0.028496000000007845
    0.02540300000000475
    0.008799999999999987
    0.011950999999997672
    -0.03477400000001412
    -0.04927200000002862
    -0.002685000000000031
    0.02390200000000325
    0.0076620000000006926
    -0.021374000000000722
    -0.02352200000000287
    -0.035654000000015
    -0.012979999999996916
    -0.0120479999999976
    0.002776000000000045
    -0.002224999999999971
    0.020759000000000107
    -0.014592999999995731
    -0.01610299999999545

2
    -0.05804300000003739
    -0.009836999999999225
    0.025948000000005297
    -0.007207000000000633
    0.041539000000020886
    0.0015689999999999673
    -0.052216000000031564
    -0.07864600000005799
    -0.0653560000000447
    -0.0473520000000267
    -0.009542999999999443
    -0.038670000000018016
    0.008430000000000258
    -0.02316000000000251
    0.03630700000001565
    -0.03841400000001776
    -0.020226999999999575
    0.06364100000004298
    0.00164699999999996
    -0.012816999999997036
    -0.03397600000001332
    -0.03800600000001735
    -0.07706800000005641
    -0.044369000000023716
    -0.020828000000000176
    0.011001999999998369
    0.019386999999998735
    0.04991300000002926
    0.040149000000019495
    0.026635000000005984
    -0.026776000000006125
    -0.004116000000000222
    0.03527700000001462
    -0.06694500000004629
    -0.05272400000003207
    -0.013993999999996173
    -0.0445510000000239
    -0.03434300000001369
    -0.030096000000009445
    -0.0470500000000264
    -0.024469000000003818
    0.042157000000021504
    0.03346400000001281
    0.02113200000000048
    0.02822200000000757
    0.04537100000002472
    0.02018099999999953
    -0.017258999999996607
    -0.03567600000001502
    -0.012120999999997547
    -0.05144200000003079
    -0.028908000000008257
    -0.04993400000002928
    -0.04307500000002242
    0.011011999999998362
    0.003385000000000125
    0.03333100000001268
    0.018007999999997356
    0.06743600000004678
    0.09787700000007722
    0.06030200000003965
    0.012883999999996986
    -0.00807300000000052
    -0.024828000000004177
    -0.010200999999998957
    -0.04559300000002494
    -0.02401300000000336
    -0.04291000000002226
    -0.01858299999999793
    0.02246300000000181
    -0.013511999999996525
    -0.07728000000005662
    -0.005412000000000394
    -0.0018609999999999436
    0.04049200000001984
    -0.019579999999998928
    0.018018999999997367
    -0.03926300000001861
    -0.03217200000001152
    -0.0581530000000375
    -0.036478000000015824
    -0.05421900000003357
    -0.07935000000005869
    -0.012464999999997294
    -0.004507000000000274
    -0.004313000000000247
    0.0352530000000146
    -0.0040690000000002165
    0.015197999999995288
    0.01015499999999899
    0.01361599999999645
    0.023067000000002415
    -0.036469000000015815
    -0.010697999999998592
    -0.02428200000000363
    -0.02056299999999991
    -0.0718540000000512
    -0.02636600000000571
    0.006236000000000504
    0.0033530000000001198
    0.050439000000029786
    0.03319100000001254
    -3.500000000000094E-5
    0.018709999999998058
    0.08280400000006215
    -0.07427500000005362
    -0.007985000000000585
    -1.3699999999999975E-4
    -0.015748999999995097
    -0.019436999999998785
    -0.033240000000012586
    -0.044487000000023834
    -0.0865570000000659
    -0.03701500000001636
    -0.011578999999997947
    0.007909000000000643
    0.05362100000003297
    0.045227000000024574
    0.038469000000017815
    0.01162999999999791
    0.04200600000002135
    0.03837500000001772
    0.020509999999999858
    0.017686999999997035
    -0.016793999999996142
    -0.035688000000015034
    -0.03513400000001448
    -0.045649000000024996
    -0.020205999999999554
    -0.03308500000001243
    -0.01884299999999819
    0.0347550000000141
    0.0038030000000001795
    0.05404000000003339
    0.06406600000004341
    -0.05988400000003923
    0.03803400000001738
    0.026124000000005473
    0.05019500000002954
    0.0037650000000001753
    -0.008045000000000541
    -0.048417000000027764
    -0.028919000000008264
    -0.01942299999999877
    -0.004283000000000243
    0.052158000000031506
    0.016169999999995518
    0.015337999999995185
    0.018725999999998074
    0.047749000000027096
    -0.021774000000001122
    0.01360399999999646
    0.048158000000027505
    0.04718400000002653
    0.005394000000000391
    -0.0170509999999964
    0.02709200000000644
    -0.007099000000000617
    -0.003851000000000186
    -0.005810000000000446
    0.03697100000001632
    0.004313000000000248
    0.02729100000000664
    0.029288000000008637
    0.02520200000000455
    -0.04451400000002386
    0.02030099999999965
    -0.013984999999996178
    -0.06360200000004294
    -0.004750000000000306
    -0.04001400000001936
    -0.00591400000000046
    0.016657999999996006
    -0.01640099999999575
    0.012203999999997486
    0.04138500000002073
    0.04427600000002362
    -0.014305999999995942
    -0.00507600000000035
    0.005373000000000389
    -0.00870300000000006
    -0.010643999999998632
    -1.9100000000000052E-4
    -0.015635999999994984
    -0.015143999999995326
    0.005947000000000466
    0.010218999999998946
    0.020467999999999816
    0.01674299999999609
    0.04378000000002313
    0.034240000000013586
    -0.019677999999999026
    0.0032440000000001053
    -0.0046390000000002905
    -0.012720999999997106
    -0.09577900000007512
    -0.07425000000005359
    -0.013988999999996176
    -0.08068500000006003
    -0.03822200000001757
    -0.0011849999999999996
    0.05873200000003808
    0.0682620000000476
    0.030477000000009823
    -0.006656000000000559
    -0.0013159999999999895
    -0.038708000000018054
    -0.03919700000001854
    -0.04853500000002788
    0.014979999999995447
    -0.04920200000002855
    -0.07907100000005841
    -0.1324670000001118
    -0.04061500000001996
    -0.09596300000007531
    -0.008516000000000195
    0.03298200000001233
    0.05738400000003673
    -0.023517000000002865
    -0.023826000000003175
    -0.07723400000005658
    -0.06367500000004302
    -0.06282700000004217
    -0.06611200000004545
    -0.04041500000001976

3
    -0.08259100000006193
    -0.019499999999998848
    -0.04078300000002013
    -0.054566000000033914
    -0.033858000000013204
    -0.03832500000001767
    -0.03523300000001458
    -0.028418000000007767
    -0.018999999999998348
    -0.043418000000022765
    -0.053738000000033086
    -0.0036910000000001655
    -0.03322600000001257
    -0.03399500000001334
    -0.04526100000002461
    -0.08652900000006587
    0.04798000000002733
    0.0040210000000002084
    -0.054817000000034165
    -0.0665650000000459
    -0.07909800000005844
    -0.09972900000007907
    -0.07540900000005475
    -0.02441300000000376
    -0.06587600000004522
    -0.06769600000004704
    -0.04214100000002149
    -0.04391600000002326
    -0.05998300000003933
    -0.06442500000004377
    0.011628999999997908
    -0.0012669999999999919
    -0.03518700000001453
    -0.03848600000001783
    -0.03854600000001789
    -0.037269000000016615
    -0.10921000000008856
    -0.08908000000006842
    -0.07022000000004956
    -0.03886300000001821
    -0.04553400000002488
    -0.004073000000000216
    -0.02258200000000193
    -0.04402600000002337
    -0.05881900000003817
    0.03757300000001692
    0.006181000000000495
    -0.04964300000002899
    -0.06041500000003976
    -0.034619000000013965
    -0.04259100000002194
    -0.09451300000007386
    -0.05610200000003545
    -0.035080000000014426
    -0.01539799999999514
    -0.013455999999996566
    0.006122000000000489
    -0.003460000000000134
    -0.05383300000003318
    -0.04660000000002595
    -0.007768000000000707
    -0.021657000000001005
    -0.01656099999999591
    -0.023707000000003055
    -0.023368000000002716
    -0.027857000000007206
    -0.08132600000006067
    -0.047359000000026706
    -0.055807000000035155
    -0.0010310000000000135
    -0.02061099999999996
    -0.02683200000000618
    -0.02681100000000616
    -0.04830100000002765
    -0.03139200000001074
    0.017708999999997057
    -0.019693999999999042
    -0.017285999999996634
    -0.044248000000023595
    -0.040389000000019736
    -0.04219200000002154
    -0.04891000000002826
    -0.03971400000001906
    -0.005048000000000346
    0.06248100000004183
    0.0019309999999999378
    -0.027063000000006412
    -0.024659000000004008
    -0.02734000000000669
    -0.018467999999997816
    0.02794100000000729
    -0.06861500000004796
    -0.003558000000000148
    -0.005497000000000405
    -0.029946000000009295
    -0.030387000000009736
    -0.02171100000000106
    0.01790199999999725
    0.02837100000000772
    0.016613999999995962
    -0.00508200000000035
    -0.02762000000000697
    -0.01597199999999532
    -0.05167400000003102
    -0.05733200000003668
    -0.0031400000000000915
    -0.056477000000035825
    -0.02719100000000654
    -0.00327200000000011
    -0.005271000000000375
    -0.00983099999999923
    -0.031990000000011336
    -0.01742199999999677
    0.025785000000005134
    0.004269000000000241
    -0.006586000000000549
    -0.037158000000016504
    -0.021475000000000823
    -0.032890000000012236
    -0.04442600000002377
    -0.0047670000000003074
    -0.03877200000001812
    -0.008502000000000206
    -0.0076620000000006926
    -0.011052999999998332
    -0.011102999999998295
    0.007319000000000648
    0.0021619999999999626
    0.006084000000000482
    -0.014894999999995509
    0.002886000000000058
    -0.04831600000002766
    -0.02357300000000292
    -0.03844200000001779
    -0.04223400000002158
    0.034059000000013405
    -0.07982200000005917
    -0.013201999999996753
    -0.010853999999998478
    -0.012955999999996934
    -0.02553200000000488
    -0.037429000000016775
    0.03416700000001351
    0.039288000000018634
    0.013516999999996521
    0.05052200000002987
    -0.05519500000003454
    -0.020954000000000302
    -0.04101400000002036
    -0.025715000000005064
    0.049237000000028584
    0.006788000000000576
    0.003371000000000123
    -0.019217999999998566
    -0.02880200000000815
    -0.013010999999996895
    -0.020690000000000038
    0.04552300000002487
    0.0016369999999999608
    0.028965000000008314
    0.026004000000005353
    -0.03556700000001491
    -0.016924999999996273
    -0.04497200000002432
    -0.0559540000000353
    -0.022587000000001935
    0.021085000000000433
    0.009210999999999685
    0.009185999999999705
    -0.024376000000003725
    -0.021228000000000576
    0.020467999999999816
    0.027138000000006487
    0.03352700000001287
    0.01910099999999845
    0.02309200000000244
    0.014930999999995483
    -0.008993999999999844
    -0.028478000000007827
    -0.02164300000000099
    0.004182000000000231
    0.04996100000002931
    -0.001824999999999945
    -0.07038100000004972
    -0.03958100000001893
    0.02317300000000252
    0.017029999999996378
    0.06312200000004246
    -0.02696100000000631
    0.018559999999997908
    0.050878000000030225
    0.07447600000005382
    -0.007609000000000685
    -0.04064300000001999
    -0.0412520000000206
    -0.052676000000032024
    0.02254100000000189
    -0.040088000000019434
    -0.020148999999999497
    -0.025709000000005058
    -0.05206400000003141
    -0.007231000000000636
    0.028588000000007937
    0.04820300000002755
    0.012352999999997378
    0.02332000000000267
    0.04147200000002082
    -0.02427200000000362
    0.014794999999995583
    0.0020739999999999518
    -0.07977500000005912
    0.04176100000002111
    -0.025058000000004407
    0.045269000000024616
    -0.01998099999999933
    -0.019757999999999106
    -0.05617100000003552
    -0.021525000000000873
    -0.012424999999997325
    0.008485000000000218
    -0.016797999999996146
    0.037978000000017324
    0.030581000000009927
    0.015708999999995057
    0.07671600000005606

4
    0.007317000000000648
    0.03391700000001326
    0.002722000000000036
    0.022088000000001436
    -0.03869700000001804
    0.017495999999996844
    0.00922999999999967
    -0.02456000000000391
    0.03452400000001387
    0.026966000000006315
    -0.0022519999999999745
    -0.004742000000000305
    -0.006263000000000507
    -0.02299000000000234
    -0.039910000000019256
    -0.025476000000004825
    0.028228000000007577
    0.009187999999999702
    0.03558600000001493
    0.03633500000001568
    0.018756999999998105
    0.002337999999999985
    -0.00787100000000067
    0.012610999999997189
    0.007627000000000687
    -0.05559400000003494
    -0.03667200000001602
    -0.050448000000029795
    -0.061696000000041044
    -0.07767600000005702
    0.01990299999999925
    -0.01560299999999499
    9.700000000000162E-4
    -0.0017099999999999563
    -0.023009000000002357
    -0.022285000000001633
    -0.0059600000000004675
    -0.012815999999997036
    0.03612400000001547
    0.05432400000003367
    -0.0013649999999999845
    0.006526000000000542
    -0.006694000000000564
    -0.013794999999996317
    -0.045654000000025
    -0.006416000000000528
    0.0011760000000000013
    -0.01074299999999856
    -0.037788000000017134
    -0.03314700000001249
    -0.0595500000000389
    0.006311000000000512
    -0.007797000000000711
    -0.030935000000010284
    0.027357000000006706
    0.01796299999999731
    0.0035030000000001405
    -0.006333000000000516
    -0.009974999999999123
    -0.030359000000009708
    -0.057418000000036766
    -0.04468400000002403
    -0.03407300000001342
    -0.03321100000001256
    -0.01834099999999769
    -0.029169000000008518
    -0.018466999999997815
    -0.02424300000000359
    0.013052999999996862
    0.048599000000027946
    0.025576000000004925
    0.002618000000000023
    -0.007999000000000575
    -0.008620000000000119
    -0.041447000000020794
    -0.062137000000041485
    -0.0441530000000235
    -0.023987000000003336
    -0.026479000000005828
    -0.015420999999995124
    -0.010287999999998894
    0.02008099999999943
    -0.0527550000000321
    0.004416000000000262
    0.027744000000007093
    0.02250100000000185
    0.0011010000000000067
    -0.022857000000002205
    -0.023308000000002656
    -0.029026000000008375
    -0.04811500000002746
    -0.042877000000022224
    -0.02448200000000383
    -0.023688000000003036
    1.7300000000000057E-4
    0.004748000000000307
    0.005285000000000377
    -0.022729000000002077
    0.01102699999999835
    0.00815500000000046
    0.02547200000000482
    -0.01693199999999628
    -0.024844000000004193
    -0.032652000000012
    -0.020434999999999783
    -0.06208900000004144
    -0.030239000000009588
    -0.009644999999999366
    0.03514500000001449
    -0.003621000000000156
    -0.03211200000001146
    -0.02321100000000256
    9.099999999999992E-5
    2.7500000000000023E-4
    -0.0233530000000027
    -0.02241100000000176
    -0.0017469999999999524
    -0.023245000000002593
    -0.01788099999999723
    -0.004892000000000325
    -0.07040400000004975
    -0.027128000000006477
    -0.008978999999999855
    -0.010010999999999097
    -0.018468999999997817
    -0.049707000000029054
    0.001371999999999984
    -0.026559000000005908
    0.0026950000000000333
    -0.041367000000020714
    -0.005856000000000453
    -0.03131100000001066
    -0.005427000000000396
    -0.01892099999999827
    -0.030467000000009816
    -0.0704580000000498
    -0.014635999999995701
    -0.03760200000001695
    0.008795999999999991
    -0.062196000000041544
    -0.048209000000027556
    0.012989999999996909
    0.009415999999999534
    0.003166000000000096
    -0.028406000000007755
    -0.014790999999995585
    -0.027774000000007123
    -0.026526000000005875
    -0.026179000000005528
    -0.045557000000024904
    -0.0663540000000457
    -0.04356300000002291
    -0.020652
    -0.048368000000027715
    -0.026904000000006253
    -0.023734000000003082
    0.05114100000003049
    0.04277400000002212
    0.010739999999998561
    -0.01688299999999623
    -0.019733999999999082
    -0.0443520000000237
    -0.026525000000005874
    -0.03816700000001751
    -0.045149000000024496
    -0.04848300000002783
    -0.014057999999996126
    -0.03809200000001744
    -0.02360200000000295
    -0.035139000000014485
    -0.010385999999998823
    0.032968000000012314
    0.025885000000005234
    0.020317999999999666
    -0.01767099999999702
    -0.030138000000009487
    -0.03560300000001495
    -0.04378000000002313
    -0.046937000000026284
    -0.04368000000002303
    -0.005494000000000402
    -0.009946999999999142
    -0.04283400000002218
    4.6300000000000567E-4
    -0.00931199999999961
    0.025268000000004617
    0.057576000000036924
    0.004952000000000333
    -0.007552000000000677
    -0.026155000000005504
    -0.012290999999997424
    -0.012561999999997225
    -0.02292200000000227
    -0.00493600000000033
    -0.044538000000023885
    -0.00733800000000065
    -0.017359999999996708
    -0.04078400000002013
    0.009689999999999335
    0.013771999999996334
    -0.0042180000000002354
    0.06181200000004116
    0.03740700000001675
    0.024379000000003728
    -0.01812099999999747
    8.600000000000143E-4
    0.00863300000000011
    -0.00417400000000023
    -0.0038330000000001835
    -0.04149000000002084
    0.02293100000000228
    0.003658000000000161
    -0.021936000000001284
    0.061776000000041124
    0.030318000000009664
    0.0508510000000302
    0.061256000000040604
    0.023092000000002437
    -0.0017689999999999514
    -0.010243999999998926
    -0.028296000000007645
    0.033688000000013034
    -0.013581999999996475
    -0.017533999999996882
    -0.08023300000005958

5
    0.005853000000000452
    -0.047539000000026886
    -0.014410999999995866
    0.01090499999999844
    0.005117000000000354
    -0.012433999999997319
    0.0076850000000006965
    -0.06292000000004226
    -0.023495000000002843
    -0.06297800000004232
    -0.049587000000028934
    -0.0934550000000728
    -0.06307300000004241
    -0.04180300000002115
    0.04639400000002574
    -0.02117100000000052
    -0.02581200000000516
    0.009905999999999176
    0.01907299999999842
    -0.0010290000000000128
    0.013495999999996537
    0.07031800000004966
    0.03437500000001372
    -0.020967000000000315
    -0.0425510000000219
    -0.09252500000007187
    -0.10509100000008444
    -0.10583600000008518
    -0.08898400000006833
    -0.06772500000004707
    0.028766000000008115
    -0.026846000000006195
    0.01822299999999757
    0.005844000000000452
    0.03890200000001825
    0.04703100000002638
    0.008119000000000489
    -0.027897000000007246
    0.05672900000003608
    0.042468000000021815
    0.011100999999998296
    0.007329000000000648
    -0.04960600000002895
    -0.037169000000016515
    -0.15873600000013807
    -0.023919000000003268
    -0.04229100000002164
    -0.02162200000000097
    0.006686000000000563
    0.0030590000000000816
    0.019077999999998426
    0.07378200000005312
    0.012604999999997193
    0.03433700000001368
    -0.016145999999995494
    -0.0033390000000001188
    0.010080999999999046
    -0.026397000000005746
    -0.0607490000000401
    -0.0543550000000337
    -0.008289000000000362
    -0.05344500000003279
    -0.06630400000004565
    -0.028156000000007505
    -0.02094100000000029
    -0.04377300000002312
    0.004993000000000338
    0.03306700000001241
    0.02454300000000389
    0.014049999999996132
    -0.02066200000000001
    0.013998999999996167
    -0.02151100000000086
    -0.03487500000001422
    0.01323599999999673
    -0.020129999999999478
    -0.03992600000001927
    0.0015329999999999712
    -0.020684000000000032
    -0.013745999999996353
    0.0035130000000001427
    9.860000000000155E-4
    0.03984400000001919
    0.020859000000000207
    -0.04853000000002788
    0.0073530000000006515
    -0.00410800000000022
    -0.009277999999999635
    -0.01580099999999515
    -0.01910299999999845
    -0.04357600000002292
    -0.0061330000000004905
    -0.05122200000003057
    -0.04429400000002364
    -6.38000000000008E-4
    0.02582200000000517
    -0.0024650000000000036
    0.03900200000001835
    0.0016479999999999616
    0.059118000000038466
    0.006274000000000508
    0.019218999999998567
    -9.220000000000158E-4
    -0.00934099999999959
    -0.05846000000003781
    0.016199999999995548
    0.021995000000001343
    -0.02918000000000853
    -0.023829000000003178
    -0.033980000000013326
    -0.03913500000001848
    0.0033440000000001194
    -0.023414000000002762
    0.006072000000000481
    0.003666000000000162
    -0.0062890000000005095
    0.029986000000009335
    -0.004922000000000329
    -0.010873999999998463
    -0.02349300000000284
    -0.009371999999999566
    0.034480000000013826
    -0.011351999999998112
    -0.037319000000016665
    -0.03994500000001929
    -0.06763700000004698
    -0.01643199999999578
    0.03522200000001457
    -0.021498000000000846
    -0.050368000000029715
    0.005829000000000448
    0.04651500000002586
    0.021776000000001124
    -0.041937000000021284
    -0.018176999999997525
    -0.007879000000000663
    0.0371560000000165
    -0.0524520000000318
    -0.03574700000001509
    -0.027164000000006513
    -0.06629400000004564
    -0.043629000000022976
    0.0036360000000001573
    -0.03959100000001894
    -0.016663999999996012
    -0.022517000000001865
    0.04112500000002047
    0.006922000000000594
    0.010568999999998687
    0.008648000000000098
    0.04799200000002734
    0.023648000000002996
    -0.02844200000000779
    -0.025914000000005263
    -0.027553000000006902
    -0.057907000000037255
    -0.030099000000009445
    -0.013007999999996897
    -0.011552999999997966
    0.015926999999995275
    0.013366999999996632
    0.04720000000002655
    -0.0012759999999999929
    -0.026174000000005523
    -0.0490540000000284
    -0.016338999999995687
    0.003930000000000198
    -0.03836200000001771
    -0.03881700000001816
    -0.05973500000003908
    -0.046638000000025985
    -0.04681000000002616
    -0.016066999999995415
    -0.022209000000001557
    -0.012810999999997042
    0.04101200000002036
    0.036170000000015516
    0.04498600000002433
    0.020374999999999723
    -0.005060000000000347
    0.029603000000008952
    -0.01959299999999894
    -0.08499800000006434
    -0.034110000000013456
    -0.04856400000002791
    -0.07363000000005297
    -0.05118200000003053
    -0.018088999999997437
    -0.0012399999999999941
    -0.005340000000000384
    0.04813600000002748
    0.008630000000000112
    -0.034078000000013424
    -0.002565000000000016
    0.048217000000027564
    0.06253500000004188
    -0.008190000000000437
    -0.0649520000000443
    -0.0235510000000029
    -0.03478100000001413
    -0.04953000000002888
    -0.09086400000007021
    -0.0025430000000000123
    -0.06568600000004503
    0.10421300000008356
    -0.030168000000009514
    0.028805000000008154
    0.02840200000000775
    4.770000000000041E-4
    0.01112399999999828
    0.034328000000013674
    -0.056108000000035456
    -0.09389300000007324
    -0.06700400000004635
    -0.07234800000005169
    -0.10399100000008334
    -0.11084000000009019
    -0.1159580000000953
    -0.0580540000000374
    0.006297000000000512
    -0.003996000000000206
    -0.041419000000020766
    -0.040058000000019404
    0.025014000000004363
    0.0995520000000789

6
    -0.02181300000000116
    -0.03526600000001461
    0.0017239999999999534
    -0.06702000000004636
    0.0037580000000001753
    -0.06902400000004837
    -0.04214100000002149
    0.015625999999994974
    0.0358510000000152
    -0.028776000000008125
    -0.026367000000005716
    0.01914299999999849
    0.0014339999999999778
    -0.003947000000000199
    -0.05802900000003738
    -0.10107800000008042
    -0.06618300000004552
    -0.03316200000001251
    -0.05747200000003682
    -0.03773300000001708
    0.038150000000017496
    -0.036568000000015914
    -0.046869000000026216
    -0.014990999999995439
    0.03963100000001898
    0.06572900000004507
    0.08013000000005947
    0.07900000000005834
    0.11001500000008936
    0.05016300000002951
    -0.06342700000004277
    -0.005278000000000377
    0.020659000000000007
    -0.01214499999999753
    0.002852000000000054
    -0.06152300000004087
    -0.02283200000000218
    -5.13000000000006E-4
    0.06339900000004274
    0.023369000000002717
    0.028943000000008292
    0.0329550000000123
    0.09321400000007256
    0.037858000000017204
    0.023579000000002924
    -0.019719999999999068
    -0.03158100000001093
    0.0016969999999999574
    0.03341400000001276
    -0.018088999999997437
    -0.03434300000001369
    -0.02891200000000826
    0.057988000000037336
    0.045977000000025324
    -0.07693600000005628
    -0.006372000000000521
    -0.03739400000001674
    0.03481700000001416
    -0.002075999999999952
    0.051957000000031305
    0.009375999999999564
    0.014219999999996007
    0.032700000000012046
    -8.78000000000014E-4
    -0.005615000000000421
    0.005963000000000466
    -0.0030600000000000818
    -2.9000000000000807E-5
    0.010719999999998576
    -0.03414200000001349
    -0.03826100000001761
    -0.03887200000001822
    -0.027455000000006804
    0.04741300000002676
    -0.02593200000000528
    -0.007371000000000655
    0.04734400000002669
    -0.027067000000006416
    -0.04444400000002379
    -0.05172200000003107
    0.009581999999999414
    0.01346499999999656
    0.010345999999998851
    -0.011265999999998177
    -0.053778000000033126
    -0.028669000000008018
    -0.03562300000001497
    -0.037440000000016786
    -0.021916000000001264
    0.03714200000001649
    -0.014656999999995686
    0.030617000000009966
    -0.01593099999999528
    -0.001464999999999976
    -0.025777000000005126
    0.003939000000000199
    0.0026800000000000313
    -0.011014999999998361
    -0.032740000000012086
    -0.05616100000003551
    -0.016309999999995658
    -0.02201100000000136
    -0.01779199999999714
    -0.0079640000000006
    0.08436700000006371
    -0.054138000000033486
    0.014249999999995983
    -0.005621000000000422
    0.0071270000000006216
    -0.010256999999998916
    9.000000000000162E-4
    -0.0029230000000000636
    0.018427999999997776
    -0.02484300000000419
    -0.06342200000004276
    -0.021499000000000847
    -0.020058999999999407
    -0.005030000000000343
    -0.004114000000000222
    -0.00417700000000023
    -0.02237100000000172
    0.006115000000000487
    0.013778999999996329
    -0.0033060000000001144
    -0.025653000000005
    -0.03528200000001463
    0.002578000000000017
    0.009091999999999772
    -0.03112100000001047
    -0.03923300000001858
    -0.020344999999999693
    -0.010573999999998683
    -0.007035000000000609
    -0.0062980000000005115
    -0.009499999999999472
    -0.056988000000036336
    -0.018775999999998124
    -0.019704999999999053
    -0.024264000000003613
    -0.039150000000018496
    -0.034670000000014016
    0.023449000000002797
    0.03311400000001246
    -0.012748999999997087
    -4.299999999999904E-5
    -0.024828000000004177
    -0.025408000000004757
    -0.023425000000002773
    -0.021659000000001007
    -0.027955000000007304
    -0.07538700000005473
    7.820000000000116E-4
    -0.017425999999996774
    -0.026634000000005983
    -0.02017299999999952
    -0.02762200000000697
    -0.017058999999996407
    0.05157400000003092
    0.024269000000003618
    -0.006241000000000503
    -0.021545000000000893
    -0.013593999999996465
    -0.012757999999997079
    -0.0018739999999999408
    -0.015424999999995121
    0.007656000000000693
    -0.0025090000000000095
    -0.022125000000001473
    -0.020229999999999578
    -0.03209300000001144
    -0.03424500000001359
    0.018948999999998297
    0.02202100000000137
    -0.01226599999999744
    0.0047120000000003
    -0.006785000000000576
    -0.010975999999998388
    -0.004371000000000255
    -0.02960200000000895
    -0.050438000000029785
    -0.011241999999998194
    -0.051209000000030556
    -0.02854100000000789
    -0.033350000000012696
    -0.03230600000001165
    -0.037559000000016905
    0.01854099999999789
    -0.044958000000024305
    0.02778000000000713
    0.049798000000029145
    -0.009062999999999793
    0.0017309999999999537
    -0.003951000000000199
    0.0011580000000000028
    -0.038349000000017695
    -0.016057999999995406
    -0.08321000000006255
    -0.05927900000003863
    -0.028486000000007835
    -0.011384999999998088
    -0.03743200000001678
    -0.0285520000000079
    -0.010579999999998679
    0.04074200000002009
    0.04553000000002488
    0.003912000000000195
    -0.011394999999998082
    -0.022534000000001882
    -0.021000000000000348
    -0.001498999999999974
    0.00454900000000028
    -0.10679200000008614
    -0.1117590000000911
    -0.0757530000000551
    -0.06056100000003991
    -0.05146300000003081
    -0.061967000000041315
    -0.059636000000038984
    0.027928000000007277
    0.022447000000001795
    0.051719000000031067
    -0.014455999999995832
    -0.060297000000039645
    -0.04254600000002189
    0.0364560000000158

7
    0.06319700000004254
    -0.011056999999998329
    -0.0640530000000434
    -0.013921999999996226
    -0.027047000000006392
    -0.02597100000000532
    -0.03526400000001461
    -0.051778000000031126
    -0.020754000000000102
    -0.014700999999995652
    -0.014056999999996125
    -0.012204999999997485
    -0.005962000000000467
    -0.025705000000005054
    -0.0632640000000426
    0.04932200000002867
    -0.05292500000003227
    -0.06500200000004434
    -0.01866199999999801
    -0.025404000000004753
    -0.035610000000014956
    -0.03417500000001352
    -0.06045900000003981
    -0.03331300000001266
    -0.024437000000003786
    -0.02333300000000268
    -0.010107999999999026
    -0.05342200000003277
    -0.042808000000022155
    -0.026304000000005653
    0.0402560000000196
    0.008561000000000162
    -0.05503900000003439
    -0.023887000000003236
    -0.047778000000027125
    -0.03674600000001609
    -0.019466999999998815
    -0.035158000000014504
    -0.02134000000000069
    -0.013101999999996826
    -0.019116999999998465
    -0.03752300000001687
    -0.022926000000002274
    8.780000000000139E-4
    -0.0020999999999999543
    0.0036610000000001615
    0.03438300000001373
    -0.02319100000000254
    -0.030007000000009353
    -0.0310510000000104
    -0.02404200000000339
    -0.03012000000000947
    -0.0281510000000075
    -0.02554000000000489
    -0.0025960000000000193
    -0.013931999999996217
    -0.012651999999997157
    0.007051000000000611
    -0.03399500000001334
    -0.05573300000003508
    -0.019009999999998358
    0.03542700000001477
    -0.003741000000000173
    0.015904999999995253
    -0.029703000000009052
    -0.03776400000001711
    -0.028517000000007866
    -0.03836500000001771
    -0.010191999999998964
    -0.04662300000002597
    0.018419999999997768
    0.07753700000005688
    0.02170300000000105
    0.024914000000004263
    -0.0020179999999999426
    -0.027588000000006937
    0.012445999999997308
    0.004108000000000222
    -0.023106000000002454
    -0.028077000000007426
    -0.03294500000001229
    -0.022607000000001955
    -0.022034000000001382
    -0.002611000000000022
    -0.017197999999996546
    -0.005918000000000462
    0.010858999999998474
    -0.00177499999999995
    0.008540000000000178
    -0.024647000000003996
    -0.012651999999997157
    0.012784999999997061
    0.034938000000014284
    -0.01380399999999631
    -0.014023999999996149
    -0.023298000000002646
    -0.002925000000000063
    -0.008309000000000347
    -0.0062450000000005045
    0.014905999999995501
    -0.026523000000005872
    0.034190000000013536
    0.01828199999999763
    0.009954999999999138
    0.04964200000002899
    0.026957000000006306
    0.032658000000012004
    0.030437000000009786
    -0.0025750000000000174
    -0.010494999999998741
    0.011413999999998066
    0.002256999999999975
    0.013213999999996744
    0.00838600000000029
    -0.002812000000000049
    0.01930199999999865
    -0.02244300000000179
    0.002377999999999992
    0.043127000000022474
    0.04063600000001998
    -0.019424999999998773
    0.032209000000011555
    -0.01481399999999557
    -0.02396000000000331
    0.019417999999998766
    0.009223999999999675
    6.940000000000094E-4
    0.016113999999995462
    0.0016479999999999607
    -0.024389000000003738
    -0.013846999999996279
    0.010738999999998562
    0.03381300000001316
    -0.0032980000000001125
    -0.06287200000004221
    0.011290999999998158
    0.028354000000007703
    -0.040738000000020085
    -0.025627000000004976
    0.0052430000000003715
    0.00868600000000007
    -0.024217000000003566
    -0.044878000000024225
    -0.00798200000000059
    -0.08160700000006095
    -0.040899000000020246
    0.003325000000000118
    -0.01571299999999506
    -0.029195000000008544
    -0.07867900000005802
    0.005897000000000459
    -0.006205000000000499
    -0.05376100000003311
    -0.012566999999997221
    0.015229999999995265
    0.024567000000003916
    -0.012639999999997166
    -0.011934999999997685
    -0.04789300000002724
    -0.03523200000001458
    -0.043857000000023204
    -0.045077000000024424
    -0.028823000000008172
    -0.02903100000000838
    -0.03879600000001814
    0.06090400000004025
    -0.0028450000000000523
    -0.016393999999995742
    0.018463999999997812
    0.00992799999999916
    0.04672100000002607
    -0.021705000000001053
    -0.03218700000001153
    -0.03313600000001248
    -0.06674400000004609
    -0.05377000000003312
    -0.04590500000002525
    -0.010403999999998808
    -0.03521500000001456
    -0.03133100000001068
    -0.0016529999999999611
    -0.051286000000030633
    0.004242000000000238
    0.04532000000002467
    0.014603999999995725
    -0.0325570000000119
    -0.03412300000001347
    -0.03636300000001571
    -0.03064200000000999
    -0.0797500000000591
    -0.029228000000008577
    -0.01139599999999808
    -0.0162509999999956
    -0.03407300000001342
    -0.04682500000002617
    0.07892400000005827
    0.018146999999997495
    0.02281300000000216
    0.07642500000005577
    0.05363300000003298
    0.02236200000000171
    -0.0684590000000478
    -0.06135900000004071
    -0.08396900000006331
    -0.06570800000004505
    -0.07821600000005756
    -0.027387000000006736
    -0.023209000000002557
    -0.051497000000030844
    -0.08633900000006568
    0.015108999999995354
    0.08422500000006357
    0.08204800000006139
    0.004807000000000314
    0.020493999999999842
    -0.0018799999999999403
    0.03113100000001048
    -0.01229399999999742
    -0.030495000000009844
    -0.04271300000002206
    -0.04380100000002315
    -0.008779000000000004
    -0.0029140000000000615
    -0.026977000000006322
    -0.07913200000005848

8
    0.04409600000002344
    0.04586200000002521
    0.021819000000001167
    0.01482299999999556
    0.10243600000008178
    -0.04140200000002075
    -0.06484400000004419
    -0.11129700000009064
    -0.08206400000006141
    -0.0388560000000182
    -0.03158200000001093
    0.02696000000000631
    0.06189000000004124
    0.04290300000002225
    -0.03343500000001278
    -0.07087600000005022
    -0.0330520000000124
    0.049597000000028944
    0.0804550000000598
    -0.03620700000001555
    0.017806999999997155
    -0.12829700000010763
    -0.12320400000010255
    -0.09633900000007568
    -0.06253800000004188
    -0.061057000000040405
    0.035819000000015165
    0.0769640000000563
    0.0309530000000103
    -0.05928000000003863
    0.011553999999997965
    -0.035938000000015284
    -0.06641400000004576
    -0.01434899999999591
    0.12714400000010648
    0.08554900000006489
    0.0042400000000002375
    -0.059927000000039275
    -0.062008000000041356
    -0.008732000000000038
    0.03623400000001558
    0.059136000000038484
    0.10513500000008448
    0.003869000000000189
    -0.051487000000030834
    0.01968199999999903
    0.017084999999996433
    -0.045547000000024894
    -0.016764999999996113
    0.029905000000009254
    0.05513500000003448
    -0.024707000000004056
    -0.05659400000003594
    -0.05077400000003012
    -0.014163999999996048
    0.1111610000000905
    0.07868600000005803
    0.013614999999996451
    0.05087100000003022
    -0.03281400000001216
    0.02128100000000063
    0.010356999999998845
    0.01706099999999641
    0.008638000000000106
    0.10457900000008392
    0.033430000000012776
    0.04950400000002885
    0.02966000000000901
    -0.029404000000008753
    0.013574999999996479
    0.07523000000005457
    0.04924500000002859
    -0.011778999999997798
    -0.029399000000008748
    -0.019609999999998958
    -0.04418300000002353
    -0.011241999999998193
    -0.11078200000009013
    -0.02511200000000446
    0.04518000000002453
    0.06983800000004918
    0.05861000000003796
    -0.06713600000004648
    -0.017594999999996943
    -0.01233799999999739
    0.0365540000000159
    -0.008099000000000502
    -0.0038950000000001917
    0.0031770000000000964
    -0.07830000000005764
    -0.03339500000001274
    -0.01796099999999731
    -0.008671000000000081
    -0.0299510000000093
    0.03934600000001869
    0.10892200000008827
    0.02324300000000259
    -0.018133999999997482
    -0.027494000000006843
    -0.0054510000000004
    0.02750200000000685
    -0.04358600000002293
    -0.006070000000000481
    0.008652000000000095
    -0.03854600000001789
    -0.052906000000032254
    -0.03389200000001324
    0.00349900000000014
    -0.010991999999998376
    0.06587600000004522
    0.009048999999999805
    0.032880000000012226
    0.04289000000002224
    0.018196999999997545
    2.4200000000000038E-4
    -0.03206100000001141
    0.03714400000001649
    -0.04769100000002704
    -0.007628000000000688
    -0.04998000000002933
    -0.057906000000037254
    -0.040747000000020094
    -0.026508000000005857
    -0.019477999999998826
    -0.028448000000007797
    0.056858000000036206
    -0.01611199999999546
    0.01511099999999535
    -0.016037999999995386
    -0.05456900000003392
    0.008078000000000517
    -0.0358510000000152
    -0.03578100000001513
    -0.019504999999998853
    -0.016204999999995553
    -0.010779999999998532
    0.00916399999999972
    -0.037668000000017014
    -0.03000200000000935
    -0.05809200000003744
    -0.07287300000005222
    0.036810000000016156
    -0.042358000000021705
    0.03199100000001134
    0.026825000000006174
    -0.05617500000003552
    -0.024057000000003406
    -0.03634400000001569
    -0.02953200000000888
    -0.0667540000000461
    -0.06635000000004569
    0.050899000000030246
    -0.051848000000031196
    -0.08022400000005957
    -0.055848000000035196
    -0.02083200000000018
    0.047427000000026774
    -0.0023519999999999886
    0.040649000000019996
    0.04272400000002207
    -0.01608099999999543
    -0.023894000000003243
    -0.02319300000000254
    -0.0019269999999999364
    -0.01800299999999735
    0.028428000000007777
    -0.012540999999997238
    0.04671200000002606
    -0.05950000000003885
    -0.011224999999998207
    0.02258200000000193
    0.015793999999995142
    -0.0134109999999966
    -0.0547520000000341
    0.027403000000006752
    -0.0012029999999999981
    -0.011799999999997783
    -0.05623500000003558
    -0.044868000000024215
    -0.005657000000000426
    -0.035109000000014455
    0.0239530000000033
    -0.10347200000008282
    -0.02363600000000298
    0.027859000000007208
    0.033248000000012594
    -0.025776000000005125
    0.011041999999998341
    -0.0015999999999999639
    0.04964500000002899
    -0.01355999999999649
    0.0022209999999999713
    0.008344000000000323
    -0.029927000000009276
    -0.019679999999999028
    0.0032090000000001024
    0.009585999999999411
    -0.05399100000003334
    -0.020558999999999907
    0.009889999999999186
    -0.02081200000000016
    0.02940200000000875
    -0.025243000000004588
    0.026297000000005646
    -0.033309000000012655
    -0.01801199999999736
    -0.014159999999996049
    -0.035150000000014496
    -0.054366000000033714
    0.05677300000003612
    -0.08039000000005973
    -0.03734200000001669
    -0.03521600000001456
    4.980000000000065E-4
    -0.025816000000005165
    -0.010355999999998844
    -4.040000000000041E-4
    -0.007468000000000668
    -0.0395530000000189
    -0.04549500000002484
    -0.032049000000011395
    -0.020547999999999896
    -0.07650900000005585
    -0.011439999999998047
    0.04566500000002501

9
    -0.09590900000007525
    -0.06542200000004476
    0.05157100000003092
    -0.06724700000004659
    0.026573000000005922
    -0.06699700000004634
    -0.07523400000005458
    -0.12226300000010161
    -0.06448600000004383
    -0.11023900000008958
    -0.12881200000010815
    -0.09479900000007414
    -0.04913200000002848
    -0.019396999999998745
    0.06117200000004051
    -0.11189500000009124
    -0.02896200000000831
    0.00814400000000047
    0.030385000000009734
    -0.026639000000005988
    -0.01110899999999829
    0.01760299999999695
    -0.12378500000010313
    -0.01798099999999733
    -0.0869600000000663
    -0.05770200000003705
    -0.05782400000003717
    -0.1041580000000835
    -0.03251500000001186
    0.07713200000005647
    -0.028719000000008064
    0.050868000000030215
    0.07617600000005552
    -0.06463200000004397
    -0.06587800000004522
    -0.03721100000001656
    0.025246000000004595
    0.06542400000004477
    0.023128000000002476
    0.012448999999997308
    -0.028534000000007883
    -0.041398000000020745
    -0.09224400000007159
    -0.02544100000000479
    0.0852540000000646
    -0.10627600000008562
    -0.02037299999999972
    0.046929000000026276
    -0.018329999999997678
    -0.022348000000001696
    -0.02567100000000502
    0.0189529999999983
    0.023585000000002933
    0.011439999999998049
    0.001620999999999962
    0.04156100000002091
    -0.03413500000001348
    -0.075658000000055
    -0.03481300000001416
    0.03033200000000968
    -0.019643999999998992
    0.023658000000003006
    -0.01662199999999597
    0.04778200000002713
    0.055557000000034905
    0.10066400000008001
    0.06072100000004007
    -0.010254999999998918
    0.031078000000010427
    -0.001607999999999964
    0.01786299999999721
    -0.05532100000003467
    -0.016879999999996228
    -0.04104400000002039
    -0.06613700000004548
    -0.03991600000001926
    -0.024789000000004134
    0.037630000000016976
    -0.035119000000014465
    -0.01668299999999603
    0.044449000000023796
    -0.014782999999995593
    -0.03727600000001662
    0.0055130000000004065
    0.02484000000000419
    -0.0017799999999999496
    -0.011007999999998366
    -0.04088300000002023
    -0.0388570000000182
    -0.05354200000003289
    -0.014156999999996051
    -0.059906000000039254
    0.015478999999995082
    0.004110000000000222
    -0.035710000000015056
    -0.03374500000001309
    -0.040838000000020185
    -0.011735999999997831
    -0.02311000000000246
    -0.03180700000001115
    0.029213000000008562
    -0.04926300000002861
    -0.0353510000000147
    -0.068651000000048
    -0.054226000000033574
    0.01364399999999643
    0.03554200000001489
    0.0031990000000001
    -0.008515000000000196
    -0.020455999999999804
    -0.05320100000003255
    -0.06016500000003951
    0.026643000000005992
    -0.02813100000000748
    -0.04102000000002037
    0.06714000000004648
    -0.04438500000002373
    -0.0570510000000364
    -0.044008000000023355
    0.0047020000000003
    -0.007686000000000695
    -5.420000000000074E-4
    0.01031899999999887
    -0.0076000000000006835
    -0.05470300000003405
    -0.030443000000009792
    -0.06537800000004472
    0.07204100000005138
    -0.038329000000017675
    0.04440200000002375
    0.03613500000001548
    -0.04962200000002897
    -0.04613600000002548
    -0.01592299999999527
    0.11267100000009202
    0.07139500000005074
    0.03427600000001362
    -0.025258000000004607
    -0.016533999999995882
    -0.03149600000001084
    -0.004277000000000244
    -0.022684000000002032
    -0.006421000000000527
    -0.020259999999999608
    0.03906700000001841
    -0.019225999999998574
    -0.03741500000001676
    -0.02387200000000322
    0.05789000000003724
    -0.004991000000000338
    0.03750300000001685
    -0.06330900000004265
    -0.03903300000001838
    0.013395999999996612
    -0.014856999999995539
    -0.012288999999997424
    0.057198000000036546
    -0.05766200000003701
    -0.06157300000004092
    0.0079660000000006
    -0.11213700000009148
    -0.09714300000007649
    0.02150100000000085
    0.03642400000001577
    0.061977000000041325
    -0.03729700000001664
    0.023426000000002774
    -0.0089169999999999
    -0.01673199999999608
    -0.0037290000000001697
    0.02197100000000132
    -0.05892400000003827
    -0.029917000000009266
    -0.011686999999997866
    -0.018106999999997455
    -0.06677600000004612
    -0.087652000000067
    -0.06456800000004391
    0.062426000000041774
    0.04341100000002276
    -0.011468999999998026
    0.03010200000000945
    -0.029406000000008755
    0.015082999999995373
    -0.04638300000002573
    0.058926000000038274
    0.04897000000002832
    -0.06737500000004672
    0.09588600000007523
    -0.055258000000034606
    -0.08812800000006747
    -0.026785000000006134
    0.11453500000009388
    -0.0071120000000006196
    0.05291200000003226
    -0.016985999999996334
    0.011900999999997709
    -0.010043999999999075
    -0.06612300000004546
    0.027797000000007146
    -0.0173519999999967
    0.11884400000009819
    -0.028509000000007858
    -0.032170000000011516
    -0.10011500000007946
    -0.006761000000000572
    0.03612100000001547
    0.029054000000008403
    0.08022800000005957
    0.03937700000001872
    -0.08873500000006808
    -0.07857500000005792
    -0.049189000000028536
    0.017773999999997122
    0.08162700000006097
    0.09039700000006974
    0.08466900000006401
    0.08237400000006172
    -0.030360000000009706
    -0.07808000000005742
    -0.009823999999999234
    -0.0684520000000478
    0.02671100000000606
    0.002587000000000018
    -0.1587610000001381