0
    -0.004779999999999979
    0.0051899999999999525
    -0.11196999999998929
    0.19091000000005015
    0.0
    0.00196
    0.14127000000000048
    -0.8026999999989817
    -0.11196999999998929
    0.1680700000000273
    0.0
    -0.0678400000000064
    0.15124000000001048
    0.15124000000001048
    -0.11196999999998929
1
    -0.4063400000002656
    -0.39637000000025563
    0.04866000000000422
    -0.03013999999999896
    0.0
    0.1625900000000218
    -0.019499999999999386
    -0.8027099999989816
    0.04866000000000422
    -0.00729999999999989
    -0.9529999999999763
    0.09278999999999671
    -0.9529999999999763
    -0.9529999999999763
    0.04866000000000422
2
    -0.19240000000005164
    -0.18243000000004167
    0.002
    -0.38773000000024693
    0.0
    0.11592999999998774
    0.1945900000000538
    -0.17075000000003
    0.002
    0.22139000000008063
    0.0
    -0.5858299999999687
    0.2045600000000638
    0.2045600000000638
    0.002
3
    -0.06835000000000621
    -0.05838000000000722
    -0.17701000000003625
    -0.8027299999989814
    0.0
    1.8999999999999069E-4
    0.31864000000017784
    -0.04640000000000355
    -0.17701000000003625
    -0.6732399999995707
    0.0
    0.1294899999999887
    0.32861000000018786
    0.32861000000018786
    -0.17701000000003625
4
    0.15846000000001767
    -0.5527600000001192
    -0.17702000000003626
    -0.08154000000000099
    0.0
    1.799999999999907E-4
    0.5454500000001523
    0.18041000000003962
    -0.17702000000003626
    -0.6732499999995707
    0.0
    0.1294899999999887
    -0.16577000000002498
    -0.16577000000002498
    -0.17702000000003626
5
    0.1303999999999896
    -0.22947000000008871
    -0.20508000000006432
    0.029469999999999063
    0.0
    -0.8027199999989816
    0.51739000000028
    0.15235000000001156
    -0.20508000000006432
    -0.8027199999989815
    0.0
    0.10142999999999336
    0.15752000000001676
    0.15752000000001676
    -0.20508000000006432
6
    0.056400000000006584
    -0.3034700000001627
    -0.27908000000013833
    -0.038910000000001145
    0.0
    -0.8086599999989545
    0.44339000000030254
    0.0783500000000023
    -0.27908000000013833
    0.8027399999989815
    0.0
    0.033049999999999434
    0.08352000000000033
    0.08352000000000033
    -0.27908000000013833
7
    0.5812899999999892
    0.22142000000008064
    -0.10847999999999065
    -0.47430000000033345
    0.0
    -0.27959000000013884
    0.007969999999999752
    -0.2801500000001394
    -0.10847999999999065
    0.3673500000002266
    0.0
    0.2036800000000629
    -0.3519000000002111
    -0.3519000000002111
    -0.10847999999999065
8
    -0.10123999999999353
    0.15607000000001528
    -0.7910099999990349
    0.23200000000009133
    0.0
    0.8027199999989815
    -0.33533000000019464
    0.8027199999989815
    -0.7910099999990349
    0.8027399999989815
    0.0
    0.5707500000000372
    -0.0780200000000024
    -0.0780200000000024
    -0.7910099999990349
9
    -0.1827800000000421
    0.42365000000028286
    -0.8725499999986638
    0.8027199999989816
    0.0
    0.8027399999989814
    -0.4168700000002762
    0.7211899999993525
    -0.8725499999986638
    -0.8027699999989812
    0.0
    0.4892300000003484
    0.18956000000004883
    0.18956000000004883
    -0.8725499999986638